nep4_zbl 3 Nb Co Ni 
zbl 1.25 2.5
cutoff 8 4 282 42
n_max 8 8
basis_size 12 12
l_max 4 2 0
ANN 70 0
 -4.5137282e-02
  1.6534188e+00
  1.5564650e+00
  1.6303462e+00
  9.3362665e-01
  2.6327090e-02
  1.8089797e-02
 -6.0207187e-03
  2.5784338e-01
  4.4668368e-01
  1.8931292e-01
  2.1073721e-01
  6.1250657e-01
 -2.3685512e-01
  5.7723647e-01
  3.4774963e-02
  2.6793358e-01
  8.0922870e-03
 -8.1682527e-01
 -8.3220443e-03
  5.2099599e-04
  2.1267705e-01
 -2.8481309e-03
 -6.6042366e-03
  1.4114647e-01
  1.9743946e-01
  2.1984485e-01
  7.5414598e-01
  1.1255559e-01
  9.8397480e-03
  4.3397596e-01
 -4.7298542e-01
  4.5275004e-03
 -9.8880477e-02
  1.0360046e-03
 -1.0176169e-01
  7.6466523e-02
  3.4251161e-02
 -6.3097531e-01
 -1.4649588e-01
  8.7795246e-01
  1.3775386e-01
  5.2722711e-02
  1.9633934e-02
 -7.6623306e-02
 -2.1372733e-01
  2.5975555e-02
 -8.7618016e-02
  4.5797458e-01
  2.9334953e-02
  1.1614109e-01
 -5.0748888e-02
  1.1001413e-01
 -1.0664921e-01
 -1.2088021e-01
 -1.2363922e-02
 -1.1066188e-01
 -2.5130156e-01
 -6.8636316e-01
  1.5541402e+00
 -1.7042174e+00
  5.7250857e-01
 -1.0775313e+00
  9.6537627e-02
 -4.2448066e-02
  1.4656790e-03
 -4.9348372e-01
 -2.6050205e-03
  4.0050384e-02
  5.1764003e-03
  1.7975666e-02
 -4.1543916e-03
 -2.6571888e-02
  2.7742907e-02
  1.4420587e+00
 -2.2974506e-01
 -3.3022363e-02
 -1.0726016e-01
  8.1453376e-02
  2.5279401e-03
 -2.6010886e-01
  5.8770150e-02
  1.8246494e-01
 -2.7065992e-01
 -3.6192453e-01
  5.0921798e-02
  4.2779543e-02
  3.5554501e-01
  2.0667098e-01
  2.1678998e-01
 -2.1607873e-01
  1.5331174e+00
 -2.1309359e-01
 -4.0955800e-01
 -1.0205500e-01
 -1.4143772e-02
 -1.8478119e-01
 -4.7251070e-01
 -5.1619321e-02
 -3.0133868e-02
 -8.1195086e-02
  4.8437696e-03
  3.3061230e-03
  2.0388914e-02
  5.7219535e-02
  5.9318718e-02
 -5.1195662e-02
 -1.1348948e-02
  2.1559756e-01
  5.1287480e-02
 -6.2200502e-02
  3.0694130e-01
 -3.8800383e-01
 -1.0114144e-02
  8.5728192e-01
 -6.6801570e-02
 -2.5109655e-01
 -5.6933302e-02
 -3.2933569e-03
  2.9255435e-02
  4.4745639e-02
 -5.0916430e-02
 -1.3313240e-02
 -2.9593259e-02
 -3.1333141e-02
 -7.8641430e-02
 -1.5195899e-03
 -6.1118510e-02
 -7.6024234e-02
  2.4326745e-01
 -4.3349262e-02
  3.1554624e-02
  7.1377703e-03
 -7.8687882e-03
  4.8633222e-02
 -2.8892875e-01
 -4.5080837e-02
  7.2299294e-02
  2.1828096e-01
 -9.7240850e-02
  1.7143773e-01
 -1.7550673e-01
 -4.7129313e-03
  1.2158749e-02
  2.0377962e-02
 -1.1136062e-02
  2.7216251e-03
  8.0122016e-03
  6.1476361e-02
  9.9888714e-03
  2.1515605e-01
  7.1639501e-02
  1.4396235e+00
 -3.2100100e-02
  4.4919733e-02
 -7.3093954e-03
 -6.3740976e-02
  5.9495065e-02
 -8.7037303e-02
  7.3944166e-02
  6.5701887e-02
  5.7080565e-03
 -2.2295269e-01
 -2.9608679e-01
 -2.5229485e+00
  9.6886235e-01
  1.8588026e+00
 -1.6131618e+00
 -2.8336358e+00
  6.0142589e-01
 -2.9736068e-04
 -3.3674178e-01
  3.6972269e-02
  8.0683374e-01
  1.0233642e+00
  2.6202336e-01
  1.0235139e-01
 -9.0966076e-02
 -1.1501037e-01
 -1.0793534e-01
  2.9316661e-01
 -1.4099517e-01
 -2.0072784e+00
 -9.5411873e-01
 -3.9469287e-01
 -1.2739056e-01
 -1.9547962e-01
 -1.2632422e+00
 -2.7193591e-01
  9.9898465e-02
  1.0996868e-01
  1.8331318e+00
  9.7410381e-01
  9.5061868e-01
  6.9461083e-03
  1.0862035e+00
  5.7400876e-01
  1.6202000e-01
 -5.7017738e-01
 -8.9569640e-01
 -6.0704011e-01
  1.0083798e+00
  5.1897648e-03
 -1.4918436e-01
 -4.6612099e-01
 -4.4019114e-02
 -2.7243542e-02
  2.0305838e-02
 -1.1770803e-01
 -2.6143791e-02
 -1.6930366e+00
  6.9924630e-02
 -6.2158052e-02
  1.3045710e-01
 -3.3525205e-01
  6.2051695e-02
  1.2992812e+00
  4.6255454e-01
 -3.7617350e-01
  7.5176334e-01
 -1.1059139e+00
 -4.9211469e-01
  8.1906706e-01
 -6.4530146e-01
  1.4829512e+00
  4.3313745e-03
  4.4092238e-01
 -8.6974576e-02
  2.5060788e-01
 -4.6237759e-02
  5.1924102e-02
 -2.2387399e-01
 -1.4971210e-01
 -1.5912245e-01
 -3.1876034e-01
  1.0034243e-02
 -1.3719346e-01
 -1.1978760e-01
 -2.1116709e-02
  9.3084410e-02
 -1.3302122e-01
  4.7937958e-03
  1.2688595e-02
  2.1434174e-01
  1.7397534e-02
 -1.3123818e-02
  4.3479297e-01
 -1.2629439e-02
 -1.9452836e-01
 -3.9778847e-02
 -1.2055693e-02
 -5.5884372e-02
  4.8261475e-02
  3.0851178e-03
 -1.7889076e-01
  2.9641524e-01
  8.4073961e-02
 -1.8197497e-02
  2.9450424e-02
 -1.3984850e-03
 -2.6752722e-02
  6.1939735e-02
  4.0778127e-02
 -6.0798097e-02
 -4.3565333e-01
 -1.0169806e-01
  3.8243737e-02
 -2.0853208e-01
  4.6464223e-02
  4.1540064e-02
  5.7946023e-02
  1.2395105e-01
 -9.7290119e-03
  1.1698306e-01
  4.1312400e-02
  1.8534636e-02
  4.2585526e-02
 -1.3172957e-02
 -5.3359218e-02
 -7.4391425e-02
 -2.2925332e-01
  2.9621914e-02
  6.3084424e-01
  1.5094532e-02
  6.1853789e-02
  8.2104448e-03
 -1.8970838e-02
  6.4667746e-02
 -1.6911210e-02
 -9.1679813e-04
  8.5745834e-02
  9.9605531e-01
 -1.1487398e-01
  1.7277955e-01
 -6.7379437e-02
 -6.0626153e-02
  1.1039078e-01
 -1.2306753e-01
  8.6461741e-04
 -1.6689816e-02
  1.8698193e-02
 -6.4075857e-02
  4.5713102e-03
 -4.7265355e-02
  2.0247847e-02
  4.4685796e-02
  7.2703613e-03
  1.2038154e-01
  1.3194008e-02
  6.5760827e-04
  3.1608265e-02
 -2.9202225e-03
  2.6833776e-02
  1.5939994e-02
 -5.5831153e-02
 -6.4350814e-02
  3.8612712e-02
 -2.4650887e-01
  9.0485113e-03
 -1.4152560e-01
  3.6132470e-02
 -2.7544545e-02
  2.0009376e-02
 -1.0226557e-01
 -8.6492524e-02
 -3.0679700e-03
  2.1339582e-01
 -1.3196412e-01
  2.1713728e-01
  1.7670898e-02
 -1.1576276e-01
  4.1151673e-02
 -1.0713937e-02
  4.0289752e-02
  1.3946140e-02
 -8.0222180e-03
 -1.6672048e-01
  1.1200169e-02
 -3.6673371e-02
 -4.6848273e-03
 -1.4310298e-02
  7.5584322e-02
  5.2675601e-02
  1.7111190e-02
 -1.1859437e-02
 -5.9207305e-03
  1.4798220e-01
  4.5748935e-03
 -5.3470347e-02
 -1.6357930e-01
 -5.4410625e-01
 -1.5476739e-02
  4.2994954e-02
  5.1411524e-02
  6.1263211e-02
  1.7916018e-03
  2.3713470e-03
  3.2292616e-02
  1.6252942e-02
  2.3691062e-02
 -3.6404884e-04
 -4.9456303e-05
  1.8118718e-01
  4.4938315e-02
 -4.7420304e-02
  2.2080684e-02
  3.6439668e-02
 -7.7956035e-03
 -5.3889595e-02
 -2.2686072e-02
  3.1763248e-02
 -1.1769166e-02
  7.3477728e-03
  3.1082800e-02
  7.7395499e-02
  4.0896051e-03
  9.7168256e-03
  7.6865777e-02
  8.9491463e-01
  9.4602203e-01
 -3.9750181e-02
  2.6747933e-01
 -6.9626480e-01
 -7.6472148e-02
 -9.4259453e-01
  3.5206714e-01
  2.5236872e-01
  4.0743256e-01
  8.1735909e-01
 -2.1565612e-02
 -1.7388811e+00
 -3.3574320e-02
  8.9868426e-02
 -1.4154917e+00
  2.8190859e-02
 -5.9474431e-02
 -1.1136789e+00
  2.2694780e-02
  4.3592539e-01
 -6.3667649e-01
 -2.7552235e-01
  3.1197557e-01
 -5.2524006e-01
  3.5549596e-02
  1.7911799e-02
  7.4117738e-01
 -3.2812530e-01
 -2.6081559e-01
  2.1012099e+00
  4.5112175e-01
 -1.2418833e-01
 -2.5119800e-02
 -2.8533933e-01
 -4.3088996e-01
  6.6398256e-02
 -2.9804197e-01
  1.1098906e+00
  1.2889138e+00
 -7.1577203e-01
 -3.1301552e-01
 -2.7116045e-01
 -9.6439028e-01
 -1.4518579e-02
  3.5858017e-01
  9.4561443e-02
  4.1471320e-01
  6.0695869e-01
 -1.4466503e-01
 -1.7230706e-01
  1.1617239e-02
 -2.9191984e-02
  9.0014981e-04
  2.2624128e-02
  2.7237348e-02
  4.9747046e-02
 -2.9616835e-02
 -2.6186984e-02
 -2.7210612e-02
 -4.6572775e-02
  1.7141800e-02
 -2.3065696e-02
  2.5813075e-02
  1.1523186e-01
 -1.0465209e+00
 -9.8497227e-02
 -1.7044313e-01
  4.1579742e-02
  2.5301096e-01
  2.8873123e-02
 -4.2197350e-04
  6.8123904e-03
 -1.9603534e-02
 -1.8801419e-02
 -1.1898484e-02
 -6.9308162e-02
 -3.1506937e-02
 -2.4969041e-02
 -4.8033535e-02
 -4.5896135e-02
  1.6213344e-02
  2.4361147e-03
 -9.3048580e-02
 -2.5421150e-02
 -5.3727675e-02
  3.4298722e-02
  1.2498619e-02
 -7.8782417e-02
  1.4887171e-02
 -2.6284691e-04
  2.2869911e-02
  4.3306064e-02
  4.5040749e-02
 -3.2463919e-02
  3.3533439e-02
  1.0525002e-01
 -2.0085510e-02
  2.7450060e-03
 -2.2767337e-02
  6.2710759e-03
 -5.9636123e-02
  1.1629190e-01
  2.8867254e-03
 -3.9213393e-02
  8.9581320e-03
  7.8405090e-02
  2.0983946e-02
 -5.8704019e-01
  2.5440643e+00
  1.3093365e+00
  1.2411939e-01
 -1.7022568e+00
 -5.8169824e-01
 -2.5172153e-01
  3.7349667e-02
  5.7337308e-01
 -4.6037194e-01
  5.2087337e-01
 -5.6581814e-02
 -6.4953953e-01
 -9.0166265e-01
 -1.9680561e-02
  6.5319624e-04
 -1.6151415e-02
  7.8244083e-02
 -7.6339319e-02
  1.0507056e-02
 -2.2162365e-02
  2.5937161e-01
 -2.6958263e-02
 -2.8304539e-03
 -6.4912751e-02
  3.9888054e-02
  2.1354979e-02
  5.2703001e-02
  5.1618919e-02
  2.7369570e-02
 -1.7889347e-02
  1.7723529e-02
  2.0247124e-04
  2.6035335e-02
 -2.6403579e-01
  1.3410270e-01
 -1.6025720e-03
  7.5888827e-02
  1.7776974e-02
  6.4483589e-01
 -5.8485997e-01
 -4.3665487e-02
  8.7787145e-01
  6.2898537e-03
  1.0358103e-01
 -3.3411201e-02
 -1.5436999e-03
  4.6260644e-02
  2.0658711e-02
  2.5853895e-02
 -1.6798846e-03
  3.8514234e-02
  3.9013959e-02
  1.8295556e-03
  5.0899494e-01
  1.0111670e-01
  6.3426495e-01
  7.6288867e-01
  1.9620832e+00
  9.3785965e-01
  2.1629395e+00
  2.8944862e-01
 -2.7226096e-01
 -7.0179448e-02
 -8.6692058e-02
  1.8488848e-01
 -6.3014627e-01
 -1.1687389e-02
  4.0254426e-01
  3.8872864e-02
 -3.7071090e-02
  5.0526410e-02
 -1.5212503e-01
  6.2099416e-02
  2.3708598e-01
  4.7743100e-01
  2.0173426e-01
  9.3379788e-02
  7.6022841e-02
 -1.3550397e-02
 -1.1273502e-02
  1.9186671e-01
 -6.4676352e-02
 -1.2675483e+00
 -5.6539226e-02
  7.2355822e-02
  3.1375691e-01
  1.7878221e-01
 -2.7249709e-01
 -2.2684196e-02
 -3.6140588e-01
  2.5224927e-01
 -7.8028524e-01
  4.4268731e-02
  8.0535740e-01
  7.3070848e-01
 -2.0006018e-02
  2.8141191e-02
 -6.2179044e-03
 -1.1944348e+00
 -2.4324011e-02
  3.1496711e-02
  9.3715705e-02
  7.8393124e-02
  3.4764573e-02
 -2.9555684e-02
 -2.9583538e-02
 -5.1234875e-02
  1.2776116e-01
 -5.1831394e-03
  2.2485705e-02
 -1.2702380e-01
 -9.6039927e-01
 -4.6024818e-02
 -1.5184388e-01
 -2.0907657e-01
  1.8889602e-02
  6.8049736e-02
  1.0249145e-02
 -2.8799687e-02
  2.4941672e-02
  1.9538863e-02
  5.6250077e-02
  9.6403705e-03
 -2.0554201e-01
  2.8432418e-02
 -3.6600724e-02
  1.7885704e-02
  6.8637818e-02
  7.2625950e-02
  7.7707283e-03
 -1.8224481e-02
 -1.2060812e-02
 -1.5542368e-02
  3.3790355e-03
 -4.0230740e-02
  5.9532857e-01
 -8.8482286e-04
 -1.9073535e-02
 -5.1982377e-02
 -8.7886140e-02
 -8.1496961e-02
 -9.0610623e-02
 -3.5737012e-02
 -6.9357686e-02
  2.1517999e-02
  3.1878665e-02
 -2.7231613e-02
 -4.4148851e-02
 -1.2770666e-01
  6.1486778e-03
  1.2782459e-01
  2.2546039e-03
 -2.4014539e-03
 -2.1327868e-01
  3.7132956e-02
  1.4863984e-02
  2.5532484e-02
  2.2026377e-02
  2.6407314e-02
  4.3827642e-02
 -8.5064873e-02
 -1.9429903e-02
  1.9692758e-02
 -3.6175236e-02
 -3.9310060e-02
  1.5566110e-02
 -4.3180767e-02
  2.5660992e-02
  3.9010506e-02
 -1.9792639e-01
  2.4817960e-02
 -2.3369952e-03
 -2.2956587e-03
  1.7565365e-01
  4.5658727e-03
 -6.4127550e-02
  8.7482363e-02
  1.0005703e-02
 -6.5993019e-03
 -3.2693151e-02
  6.0799724e-01
 -1.0689490e-03
  3.9201871e-01
 -1.6996523e-02
  5.3934328e-02
 -4.3833447e-01
 -4.1744214e-02
  2.1462590e-02
  7.7023572e-01
 -5.1452868e-02
  1.3529570e-01
  5.6544904e-02
 -3.1066653e-03
  9.7086839e-02
 -3.2730639e-02
 -1.3226680e+00
  2.7138242e-02
 -3.2794237e-02
  3.9889120e-02
  6.6700764e-02
  9.2694782e-02
 -2.6666660e-02
 -1.1037648e-01
 -2.2814201e-02
  6.5114936e-03
  2.0594221e-02
  4.3713402e-02
  6.2763564e-02
  1.4192850e-02
  1.3695894e-02
 -2.1726249e-03
 -3.6595471e-02
 -1.2562238e-01
  5.2362587e-02
  2.9400717e-02
 -2.3517995e+00
  2.0525034e-01
  1.1642991e+00
  4.2135620e-01
 -2.5418621e-01
 -1.2837920e+00
  5.6044394e-01
 -1.1029005e+00
  5.5125338e-01
 -1.0137454e-01
  3.4649447e-01
  1.4310077e-01
 -2.9160547e-01
 -1.3209404e+00
 -1.2436717e+00
 -1.7966708e+00
  4.1313926e-03
 -9.6518230e-03
  3.4858864e-02
  3.0963974e-02
  5.9933466e-01
  4.9727300e-01
  1.7900427e-01
 -9.7558945e-02
 -7.2165452e-02
 -4.7234144e-02
 -4.1959703e-02
  8.5214965e-02
 -3.5121616e-02
  2.1565398e-02
 -1.3807113e+00
  8.7207027e-02
  6.1676625e-02
  6.7944074e-01
 -7.6383257e-01
  3.5787198e-01
  5.1848173e-02
 -7.0179231e-04
  1.6722225e-02
 -7.2583908e-01
  2.3480317e-02
  3.1535402e-01
 -2.0065591e-02
  2.2460129e-02
  6.5385468e-02
 -1.6458798e-02
  1.9046480e-02
 -2.3456266e-02
 -3.3433989e-02
 -1.0117914e-02
 -1.2684391e-01
 -7.6580532e-02
 -1.4611556e-01
  7.5186864e-02
 -1.1980324e-03
 -4.3019854e-02
 -1.9278210e-01
 -5.0434001e-02
 -9.6328110e-01
  1.7877495e+00
  1.6388178e-01
  3.5848165e-01
 -3.1572878e-02
 -2.1929214e-02
 -3.6812376e-02
  3.2731020e-03
 -4.2212270e-02
 -1.8969384e+00
 -2.9396199e-02
 -1.3666460e-03
 -1.8219721e-01
  2.7943382e-02
 -9.1823367e-03
  1.2791208e-03
  1.0491425e-01
 -1.5376006e-03
 -5.0671559e-02
 -5.1393688e-02
  3.7645411e-02
 -2.7776915e-03
  4.9350772e-02
 -1.1567558e-01
  5.0815102e-02
 -1.1144958e-01
 -1.7850997e-02
 -9.4945796e-02
  1.3320751e-02
  3.3045352e-02
  1.9724686e-02
 -1.3777791e-02
 -3.5627526e-01
  9.8362215e-02
 -3.3127281e-03
  8.9616649e-02
 -2.3946177e-02
 -6.8015768e-03
 -7.2585329e-02
  7.1098781e-03
  3.3936132e-02
  1.0168366e-01
  3.9945066e-02
  1.5392464e-02
 -4.5337778e-02
  1.6149214e-01
 -3.5989463e-02
  3.7355136e-02
  1.4865174e-02
 -2.9195858e-02
  2.2805500e+00
  1.0770297e+00
  1.4205546e+00
 -1.0942341e+00
  6.9374263e-02
  6.3626401e-02
  9.5611697e-01
  5.2922361e-02
 -2.4453027e+00
 -6.3234353e-01
 -6.5370572e-01
  3.3467638e-01
 -6.5814674e-01
  5.8804685e-01
  2.8650254e-01
 -2.2966243e-02
  5.3844106e-01
 -2.0397449e-02
 -3.9031535e-01
 -9.3112804e-02
  3.3336107e-02
 -9.8656350e-01
 -3.1886718e-01
 -5.1720166e-01
  2.0313257e-01
  2.7330251e-02
  7.4846521e-02
 -1.6161706e-02
 -1.4480911e-01
 -2.4247786e-01
 -3.1154189e-01
 -1.0801265e+00
 -2.8257392e-02
 -2.9890943e-01
 -4.9686536e-02
  1.2210581e-01
 -9.3487546e-02
 -2.5380683e-01
  3.5872874e-01
 -1.0339091e+00
  1.6961707e-01
  7.0898634e-01
  5.2401949e-02
 -1.5326881e+00
 -6.7303278e-02
  7.5294860e-02
 -7.4160442e-02
 -4.2380441e-02
  9.4164990e-02
 -4.3454412e-01
 -4.3220922e-02
 -3.4556948e-02
 -1.2949931e-02
 -1.3537982e-01
  2.4769476e-01
  2.5274172e-02
 -9.1649247e-03
  4.0046070e-03
  3.1466182e-02
 -2.7063772e-02
 -6.0016640e-02
 -2.9992290e-02
 -1.2156232e-03
 -1.2916001e-02
  5.6128092e-03
 -6.7714550e-02
 -4.1211717e-02
 -1.1474860e-01
  5.2295253e-03
  8.7528571e-02
 -9.1796674e-02
  5.6334533e-02
 -6.1349109e-02
 -1.8235367e-02
  2.5421051e-02
  2.0551418e-03
 -2.7175419e-02
  1.6001571e+00
 -8.4528321e-04
 -1.1602412e-01
  7.0581727e-02
 -6.7025446e-03
 -1.8366255e-02
  5.9308995e-02
 -8.9143300e-03
 -7.5311743e-02
 -1.7701382e-02
  6.8848045e-03
  9.3573993e-03
  1.8042813e-03
  2.4686212e-02
 -3.8271263e-02
  5.6357342e-03
 -2.2525091e-02
 -2.8521286e-02
  1.0377527e-01
 -5.4835556e-03
  5.9012696e-02
  9.4574019e-02
  4.5521546e-02
  2.7294520e-02
  2.0597775e-01
  3.2270398e-02
  1.0114914e-02
 -1.5351196e-02
 -2.6123229e-02
  5.6960694e-02
 -2.5705846e-02
  2.2440159e+00
  5.4191345e-01
  2.2618489e+00
 -9.7671962e-01
 -2.3026075e+00
  7.0975184e-01
  1.0513623e-01
  8.1990749e-01
  1.7033334e+00
 -3.7124958e-02
 -2.7682719e-01
  3.3455688e-01
 -1.4274484e-01
 -1.0625418e+00
 -6.4303273e-01
  1.6083745e-02
 -4.9200994e-01
 -5.7149446e-01
  6.5203065e-01
  2.4612397e-01
  2.0099802e-01
 -4.0816828e-03
 -1.0502946e+00
  1.0205676e-01
 -9.8566312e-01
 -1.0643061e+00
 -4.9327530e-02
  9.1776150e-01
  1.8957257e-01
  7.5852966e-01
 -3.5700715e-01
 -7.0035797e-01
 -3.3249417e-01
 -1.8904951e-01
  1.5069760e-01
  2.6078385e-03
  4.6271202e-01
 -1.3736111e-02
 -4.1344585e-03
  4.7327742e-01
 -5.1778919e-01
 -2.9471216e-01
 -4.2450231e-01
 -9.7517782e-01
 -8.6266147e-03
 -1.5930867e-01
 -3.4485154e-02
 -3.0793447e-02
 -6.9512524e-02
  4.7727853e-02
  3.7076253e-02
  1.4170191e-02
 -2.0282598e-02
  1.2891075e-02
  3.4884524e-01
 -1.3398671e+00
  7.1256948e-01
 -1.6035758e-01
 -1.2770193e+00
 -4.7071397e-02
 -1.8606979e+00
  1.3957584e+00
 -1.0312881e+00
 -2.7734596e-01
 -7.1331763e-01
  1.8925133e+00
  1.1593814e-01
  5.7169855e-01
 -1.0538914e+00
 -9.6912318e-01
 -1.1350157e+00
 -3.8201821e-01
  1.1042281e+00
 -3.7301164e-02
 -9.4415462e-01
  2.9433122e-01
 -3.8917223e-01
  2.0100147e-01
 -2.5477095e+00
  2.9645661e-01
 -7.3583744e-02
 -7.4743509e-01
  8.5480954e-04
 -3.9988527e-01
  1.0510011e+00
  6.6639566e-01
 -9.6317136e-01
  1.5183644e+00
 -6.1586332e-02
  5.5358440e-01
 -1.5644994e-01
 -1.3298686e-01
 -4.9820921e-01
  1.5745937e+00
 -6.4234275e-01
  1.3287822e+00
 -1.0265649e-01
  1.2461674e-01
 -2.1925089e-01
  3.8724123e-03
 -3.7852100e-01
 -5.0819266e-01
  9.0866931e-02
 -3.5211299e-02
 -2.0894267e-02
  1.7215574e-01
 -3.6939609e-01
  3.4698550e-02
  5.0936717e-01
 -6.4468688e-01
 -1.0073728e-01
  6.4021194e-01
  2.4392371e+00
 -2.4098694e+00
  1.0973715e+00
 -1.7075375e-01
  4.4705283e-02
 -3.2823913e-02
 -1.0541879e-01
  3.4211639e-01
  1.0619099e+00
  3.0219162e-01
  6.9535631e-01
 -5.6040418e-01
  9.4898276e-02
 -6.4673540e-03
  2.4835904e-01
  2.6886430e-01
 -6.9879405e-02
 -1.4152791e-01
 -6.1945722e-02
  9.6052474e-01
  2.2455466e-01
  6.2294620e-01
 -4.0668463e-03
 -9.3411328e-03
  3.5527122e-01
 -2.4021627e-01
  3.0912271e-01
 -6.7645109e-01
  5.9599745e-01
 -3.4275886e-01
  4.3567121e-02
  4.0528238e-01
  1.8192770e-01
  2.6955885e-01
 -7.1644896e-01
  4.8589036e-01
 -4.2103833e-01
 -8.6956061e-03
  3.5210948e-02
  4.9272314e-01
  3.4485392e-02
 -2.3060703e-01
  2.9970075e-03
 -4.2366633e-01
  1.1042772e-01
  5.9157196e-02
  2.5957012e-01
 -4.3159756e-01
 -6.4975126e-03
  1.5249007e-02
  1.1290376e+00
 -5.2394450e-01
  5.9735453e-01
 -2.0903532e-01
  1.5607773e-01
 -1.6961156e-01
 -1.3466752e-01
  1.6491833e+00
 -3.0502118e-03
 -5.5318035e-02
  1.8453718e+00
 -1.3553684e+00
  1.4652479e-01
  1.7277575e-01
 -1.5228589e+00
  8.3936617e-02
 -9.2871264e-02
 -2.4663335e-02
  6.1051917e-01
  2.5048181e-01
  1.2102568e+00
  3.6759859e-01
  1.7747788e-01
 -6.2384646e-02
  6.0772264e-01
  5.2771639e-02
 -4.3618004e-03
  4.4470835e-01
 -7.8387633e-02
  4.2064063e-02
  1.4440252e+00
  1.1408770e+00
  2.0881039e-01
 -9.6260744e-01
 -1.9215530e-01
 -1.5959005e-04
  1.3112797e-02
 -5.4573667e-01
 -2.1134330e-01
 -5.3526741e-01
  1.6818273e-01
  1.5083690e-01
 -3.7484878e-01
  6.0930714e-02
 -5.1516521e-01
 -2.2599164e-01
 -2.0472083e-02
  8.6653355e-04
 -4.8496646e-01
  1.9924666e-01
  8.6213509e-03
  1.8205943e-02
  2.0979067e-02
  1.9748736e-02
 -4.5064861e-01
  9.8426923e-02
 -1.1185943e+00
 -7.5952746e-02
  1.3640323e+00
  3.9094818e-01
  1.3519124e+00
  1.5648465e-01
  3.4188086e-01
 -1.1984076e-02
 -3.0315632e-01
  3.9954994e-02
  1.7803258e-01
  2.1649541e-01
 -8.5619483e-03
  4.5090504e-02
 -1.0724757e-02
 -7.8976244e-02
 -1.0431584e-01
 -4.0515862e-02
  4.3642920e-01
  6.9156294e-03
  4.3506339e-02
  4.5601103e-02
  5.3851627e-02
 -1.0042885e-02
 -5.3259574e-02
 -9.4445162e-03
  2.4776917e-02
  8.9237588e-03
  1.0108206e-01
  6.0143363e-01
  5.9744332e-02
  1.2621719e-01
 -4.0745277e-02
 -1.5097839e-02
  2.0699644e-01
 -3.5754603e-03
 -5.2981257e-01
 -2.0570162e-01
  3.6741564e-01
  4.1985303e-02
  5.4703977e-02
 -2.5400931e-02
  4.8617594e-02
  2.5491080e-01
  1.3782131e-02
 -8.3702125e-02
  1.1080999e-01
  1.3880622e-01
  1.3179427e-01
 -2.5328845e-02
  3.5222366e-02
 -9.8347403e-02
  9.4768805e-03
  5.9582800e-01
  6.6180765e-03
  1.5710485e-01
 -5.5710214e-01
 -9.9573486e-02
  3.2930125e-02
 -4.9850862e-02
  1.0331012e-01
 -8.7111713e-03
 -3.4682956e-03
 -1.0413148e-02
  1.6809757e-01
 -6.9595631e-03
  2.8995965e-02
  1.6203953e-02
 -2.4739390e-02
  3.5014726e-02
  4.3657973e-02
 -7.0775137e-03
 -2.1797383e-02
 -7.7920668e-03
  1.5885409e-02
  5.6356248e-02
  3.9371178e-02
  2.4715416e-02
 -6.1199196e-02
  4.0683083e-02
 -5.6683227e-02
  2.0320616e+00
 -2.4423419e-01
 -4.1223358e-02
 -3.3214524e-02
 -2.3097399e-01
 -4.4158422e-03
 -2.2453956e-02
  1.1086245e-01
 -1.0029484e-01
 -2.5857402e-02
  3.6373343e-02
  2.5556457e-01
 -4.9570628e-02
  6.4876102e-02
  7.2952854e-03
  4.9184069e-02
  1.0994962e-02
 -3.9307368e-03
  1.3673159e-02
  3.0097482e-03
 -6.1146591e-02
 -9.0818498e-03
  1.3758218e-03
 -2.3218689e-02
  4.9985313e-01
  4.7023195e-01
 -2.6572936e+00
  1.4952797e+00
  1.4927769e-01
 -7.0760518e-01
  7.6593530e-01
 -1.3480404e-01
 -5.1857535e-02
  1.1232442e+00
 -2.7774534e-01
  1.2918524e+00
  9.2407131e-01
 -4.6929386e-01
  3.3219010e-01
  4.3749234e-01
  5.5062824e-01
 -5.6906193e-01
  9.1895148e-02
  2.2688243e-01
 -1.1720027e-01
  1.1533563e+00
 -9.6261263e-01
  7.7912360e-02
 -1.3784918e-01
 -3.7448192e-01
 -2.0163812e-01
 -6.8815035e-01
 -3.6937335e-01
  6.4420038e-01
 -1.0439991e-01
 -8.5525846e-01
  3.1293318e-01
 -4.6499543e-02
  1.4647859e-01
 -1.0426355e-01
  7.1397465e-01
  2.7297743e-02
  3.3416769e-01
  1.2887882e+00
  5.6768674e-01
 -3.2320628e-01
  2.4065828e-02
  1.6720536e-01
  1.0752505e+00
 -6.2367290e-02
  1.9486461e-02
 -6.8371865e-04
 -2.2409947e-01
  8.4379494e-02
  6.2283971e-03
  2.7042258e-01
 -1.5197507e-02
  5.6643400e-02
  3.6437433e-02
 -1.2427373e-01
 -6.1820173e-01
 -4.1385747e-02
  1.7963937e-02
  1.3961934e-01
  4.9092308e-02
 -6.1716121e-02
  6.9620430e-02
 -6.7683898e-02
  2.9740422e-03
  9.7503057e-03
  2.2490321e-02
  3.2890135e-01
  7.2720073e-02
  1.3417228e-02
  7.4026927e-02
 -6.6744168e-03
  3.0072330e-02
  3.5452470e-02
 -5.2305399e-03
  4.4538071e-03
 -2.0075891e-02
  5.8612294e-02
  3.3992305e-03
 -1.0008422e-01
 -1.9970873e-02
  3.1660091e-02
 -3.3482209e-02
  5.6043204e-02
 -1.2367517e-02
  3.2039364e-03
 -1.8787902e-02
 -6.4090699e-02
 -2.6743641e-02
  2.4059111e-02
 -3.5149746e-03
  1.7096281e-02
  2.5949571e-02
 -1.0026864e-02
  3.7734684e-01
  1.1320196e-01
 -2.3695484e-02
  3.9800093e-02
  4.5090718e-03
  4.7825191e-02
 -4.0699165e-02
  8.8402927e-03
 -1.1636791e-01
  6.9302544e-02
  6.7989394e-02
 -3.3587748e-03
 -2.8113334e-02
  4.2111628e-02
  4.8266202e-02
  1.0838165e+00
 -9.6230775e-01
 -7.8213197e-01
 -4.7982553e-01
 -1.1012275e-01
 -1.1250913e+00
  2.6118681e+00
  7.4695086e-01
 -8.7148927e-02
 -1.9332744e-01
  4.7731844e-01
  2.5273317e-01
  3.5779890e-02
  2.4589272e-01
 -5.9122346e-02
  2.0931034e+00
 -4.9583468e-01
  3.0417427e-01
  9.8911718e-02
 -1.3483948e-01
  9.7670305e-01
  1.2083261e-01
  8.0834061e-01
 -7.1150243e-01
  3.5817686e-01
  1.4598809e-01
  2.8115872e-01
 -9.4621472e-02
 -1.2099413e-01
  1.2082350e+00
  8.0820990e-01
 -4.0193900e-01
 -1.1908930e-01
  5.6578660e-01
  2.1651073e-01
  2.6523498e-01
  3.3709284e-02
  9.0916914e-01
 -1.2746201e-01
 -1.6346317e-02
 -1.0864120e+00
  9.2966723e-01
  2.5188604e-02
  9.3214065e-02
  1.9531198e-02
 -3.5956092e-02
  4.9010096e-03
  4.3867508e-01
 -1.1137983e-01
  2.2295861e-02
 -3.9975584e-01
  5.1431078e-01
 -3.4707719e-01
 -3.1111328e-02
  5.4138243e-01
  1.0752434e+00
  9.0394020e-02
 -8.3123010e-01
  2.2446944e-01
 -9.0698904e-01
  1.5566025e+00
 -6.6921657e-01
 -3.2422535e-02
  2.2051062e-01
  4.8884213e-02
  3.6521581e-01
 -6.4997113e-01
 -1.2796762e-02
  4.7996113e-01
 -4.2555147e-01
 -7.3037099e-04
 -5.9990555e-01
 -3.2370484e-01
 -8.8085877e-03
  1.4326221e+00
  1.2283045e+00
 -5.9380960e-01
  5.1947606e-01
  7.2517288e-03
  9.9504638e-01
 -1.5376069e-01
  1.2495907e-01
  1.7425174e-02
  1.4175224e-01
 -4.1341388e-01
 -6.2378384e-02
  3.9902154e-01
 -1.1603015e-01
  4.3190125e-01
 -6.9483109e-02
  4.3877476e-01
 -1.5538096e-01
  3.9588580e-01
  5.0261718e-01
  3.4958608e-02
  1.1037583e-01
 -3.7842339e-01
  6.3136794e-02
  8.7738205e-03
  5.4003809e-02
  4.4926789e-02
  1.0213663e-01
  2.7384830e-01
 -2.1147013e-01
 -1.5874548e-01
 -6.8754167e-03
 -3.3513237e-02
  2.6306132e-02
 -1.6750583e-02
 -1.5629462e+00
  5.2669052e-02
  5.5535418e-01
  6.9725090e-01
  1.3008051e-01
 -6.4015514e-01
  1.9676417e-01
 -2.5980568e-02
  6.5731429e-03
  3.6353159e-01
  6.4138718e-02
 -4.2545997e-02
  7.5074911e-02
 -3.4954686e-02
  3.8479322e-01
  7.5321198e-02
  7.3333576e-02
  1.5212441e-02
 -1.0935215e-02
  1.1286088e-01
 -5.2937213e-02
 -9.9762026e-03
 -4.5153094e-03
 -1.1786894e-02
 -2.2228332e-02
 -7.0059001e-02
 -1.7074505e-02
  1.1726458e-01
 -6.1384845e-01
 -2.3755617e-01
  2.3047935e-02
 -3.4101874e-02
  5.8017578e-04
  1.8750183e-02
 -7.6785125e-02
  7.7336758e-02
  2.9652204e-02
 -8.5361727e-02
  3.0071111e-02
  4.1883554e-02
  4.4518095e-02
  2.3313290e-02
  2.3977298e-02
  2.2883408e-02
 -5.3341310e-03
  8.7294076e-03
  2.7220126e-02
 -8.9731487e-03
  1.0443729e-02
  2.3294950e-02
 -1.3808301e-01
  6.6336156e-03
 -1.2274429e-02
 -6.8796496e-03
  1.1359314e+00
 -2.4404618e-01
  8.0572434e-02
 -1.7643062e+00
  2.5349042e+00
 -8.8737917e-01
  1.3664438e-02
  2.0119506e-01
  5.0774116e-02
  9.6757032e-02
  1.7733002e-01
  1.8607247e-01
 -4.0490216e-01
  5.7505101e-01
 -1.8145533e-01
  9.5150992e-04
  2.1965021e-02
  1.3106886e-01
  6.4041023e-03
  4.7808476e-02
  2.9943860e-01
  2.5777223e-02
 -3.8167614e-02
  1.0386924e-01
  1.7886339e-01
 -1.2639232e-02
 -1.0313567e-01
 -1.6566942e-02
 -7.0908153e-01
  1.1459175e-02
  4.6121858e-02
 -1.1567506e-01
 -4.3672659e-02
  5.9773833e-02
  1.5062452e-02
 -5.1182300e-02
 -1.9001784e-02
  5.5217098e-02
  8.8763702e-01
  8.2915366e-02
 -4.2196099e-02
  6.0823213e-02
  1.0752837e-01
  8.2735401e-03
  3.1754699e-01
 -3.0589257e-03
  4.1265637e-02
 -4.0009558e-02
  9.4335359e-03
 -1.6157294e-04
  1.4488105e-02
  3.4194715e-02
  1.2208530e-02
  2.2622187e-01
 -4.8122611e-02
  2.0776708e-02
 -6.0390139e-01
 -4.3445003e-01
  1.8936250e-01
  1.1080878e+00
  5.0328866e-02
 -3.0609968e-01
 -2.1037807e-01
 -3.9057795e-02
 -3.3973362e-02
 -1.8675220e-01
 -4.6327956e-02
  1.0070830e-02
 -6.7044672e-04
 -1.3540760e-01
  1.4568692e-01
 -1.8410811e-01
 -7.9265619e-03
  8.4502824e-02
 -3.0389259e-02
 -2.3659863e-02
  1.9844303e-02
 -8.1254944e-02
  7.8454517e-02
  6.2340863e-02
  7.4129456e-01
 -3.5850350e-03
  1.6540382e-02
 -2.8832787e-01
 -1.9420017e-02
 -9.7588828e-04
  9.8169912e-03
  1.9633570e+00
  6.7518935e-02
 -1.8204033e-02
 -1.5215501e-01
  4.5399640e-02
  3.0416927e-01
 -4.5882934e-01
 -3.2412885e-03
 -1.6682321e-02
 -1.0048759e-01
  6.2813795e-01
 -8.1557870e-02
 -1.1454725e-01
 -3.8939171e-02
 -6.4208964e-04
  1.2659612e-01
  7.9877213e-02
 -2.1232485e-03
 -2.9918401e-02
  5.6620355e-04
 -1.3625976e-01
 -5.3325462e-01
 -4.1716564e-01
  1.0424757e+00
 -1.3666065e-01
  1.5409774e+00
  1.7654291e-01
 -3.5522816e-01
  1.0080922e-01
 -3.5754803e-03
 -6.0745642e-02
  3.2493524e-02
  1.6029225e-01
 -8.4258713e-02
  1.5420921e-02
  5.7515688e-02
  2.1916328e-01
  7.4234962e-02
  1.2782654e-01
  2.9658355e-02
  2.1304430e-02
  3.1705131e-03
  2.1351610e-01
 -1.4226335e-02
 -3.5424773e-03
 -7.5142264e-02
 -8.0368869e-02
  7.0101991e-02
  1.6811477e-01
 -6.2271217e-03
 -6.3494677e-03
 -6.4072184e-02
  2.6526039e-02
  1.9561394e-01
  1.3660266e-02
  1.9651659e-01
  5.2586056e-02
  1.6385587e-01
 -4.8465782e-01
 -4.2433318e-01
  3.4410384e-01
  1.3080401e-02
  2.8849891e-01
  4.0388234e-02
 -1.1265509e-01
 -1.6618194e-01
 -2.6505256e-02
 -1.6199264e-01
 -4.5748714e-01
 -4.8697244e-02
 -1.4749341e-02
  3.4375958e-02
 -1.7728283e-01
  3.4564357e-02
  3.7439722e-01
 -1.1189309e+00
  1.0554963e+00
  1.1072709e-01
  9.0010881e-01
  2.1053689e+00
  1.6204067e-01
 -7.9640573e-01
 -1.4108073e+00
 -4.1690119e-02
 -1.9131146e-01
 -7.3005632e-04
  5.4368567e-02
  2.1595578e-01
 -2.5741732e-01
  2.0514950e-01
 -6.4162356e-01
  3.5194740e-01
 -5.0051969e-02
 -4.0231398e-01
  1.2548555e-01
  7.9872382e-01
  3.3644488e-01
 -4.6906215e-01
  8.7983078e-01
 -3.7216920e-01
 -6.0586721e-02
  2.5492874e-01
 -8.6730713e-01
  1.8976358e-01
 -1.9826844e-01
  1.2415643e-01
  4.9861580e-01
  4.2535001e-01
  2.2594724e-02
  9.1918357e-02
  4.6194988e-01
  2.2500432e-01
  6.3201952e-01
 -5.2592099e-01
  5.4744955e-02
  6.6951007e-01
  1.2350779e+00
 -2.4237584e-02
  6.5802032e-01
 -1.8876538e-01
 -7.5127684e-02
 -2.4782469e-02
 -2.8690035e-02
 -2.5121135e-01
 -6.8562303e-04
  1.9868271e-02
 -2.3795092e-02
 -1.3990911e-02
 -9.3968600e-01
 -4.4582367e-01
  7.0294030e-02
 -1.0730676e-01
  4.2894831e-01
 -5.3466845e-02
 -3.0717596e-02
  5.5482876e-02
 -3.0337787e-01
  1.1630199e-02
 -4.1437406e-02
  4.2481109e-02
  1.1773985e-01
  1.3950714e-02
  3.1219985e-02
  3.8594306e-03
  7.6302462e-03
 -5.1019166e-02
  1.1423775e-01
 -1.7881801e-02
 -8.7574303e-02
 -7.7776122e-03
  3.2073691e-02
 -2.5366971e-02
  2.4938138e-02
 -1.3936913e-02
 -1.3287978e-02
  2.1775897e-01
 -1.2664430e-02
 -5.7116258e-01
 -5.6333516e-02
  1.6329534e-02
 -3.8680714e-02
 -2.1638358e-02
 -3.2781055e-03
 -2.4334397e-02
 -7.1105085e-02
  5.8064222e-02
  5.3477455e-02
 -3.6798425e-02
  8.8840060e-02
  1.2833279e-02
 -6.0762424e-02
 -1.2488481e-01
  8.1232212e-02
  3.0334996e-02
  5.0171725e-02
 -1.9608915e-02
  2.9751677e-03
  3.2174118e-02
 -4.1321856e-01
  1.8483890e-02
  2.8167680e-02
 -7.3219068e-02
  1.0696153e-01
  7.2454756e-01
 -7.8423893e-01
  5.6296295e-01
  1.0082669e+00
 -3.5038248e-01
 -2.1433463e+00
 -5.0125808e-01
  4.7491223e-01
  2.4808554e-02
  6.0345337e-02
  5.6275286e-02
  5.0822544e-01
  3.2789427e-01
  8.8613994e-02
 -2.0418873e-02
  2.9261461e-02
 -2.2689080e-01
 -8.8528597e-01
  5.1113587e-02
 -6.7986941e-01
 -2.8805399e-01
 -6.8933102e-03
 -1.5515279e-02
  4.5862859e-01
  8.6882120e-01
  2.3583950e-01
  6.6844327e-04
 -7.5605518e-01
  3.5302456e-02
  7.1443990e-02
 -1.7410125e-01
 -8.7219626e-02
 -3.0232510e-01
 -1.6954425e-01
  1.4515188e-02
  2.4744871e-01
 -1.3102244e-01
 -1.1825799e+00
 -6.0329638e-02
  3.9267969e-01
 -2.2077300e-02
  4.5116681e-01
 -1.3456225e+00
 -6.2909514e-02
  2.6800996e-01
 -3.4607076e-03
 -9.5181942e-02
 -2.0492734e-02
 -3.1822506e-02
  7.5944878e-02
 -1.0735289e-03
 -1.4474965e-02
  3.3255130e-02
  9.1135788e-01
  1.3043879e-01
  1.1224236e+00
 -3.6740980e-01
 -9.7650474e-01
 -3.9501715e-01
 -2.7592871e+00
  5.8246320e-01
  1.0034263e+00
 -1.7148864e-02
 -3.6734352e-01
 -6.5191150e-01
 -7.9800934e-01
  3.3262071e-01
  1.4667246e-02
  3.1438053e-01
 -2.1093215e-01
  2.5166896e-01
 -3.7698764e-01
 -7.2206268e-03
 -1.2392598e-01
 -5.3446651e-01
 -5.4852617e-01
  1.4536403e+00
  1.4958373e+00
 -4.6152338e-01
 -2.1504266e-02
  1.5372524e-01
 -1.3405870e-01
 -4.0482616e-01
  3.8997751e-01
  1.5714588e+00
 -6.2148833e-01
 -2.1987821e-01
 -4.9756503e-01
 -7.0582621e-02
 -1.2510565e-01
  2.9339907e-01
  1.0775373e-01
  6.9200003e-01
 -5.2607709e-01
 -9.5413202e-01
 -1.3986909e+00
 -1.7581042e+00
  4.5882967e-01
 -8.9315623e-02
  3.7034987e-03
  8.5168558e-01
  2.8398532e-01
  4.1096158e-02
 -2.4655292e+00
  2.3211543e-01
 -3.2160647e-02
  6.3188039e-02
 -2.2446238e-02
  2.9312143e-01
  1.0242520e-01
 -7.1295686e-03
 -1.7820652e+00
 -1.7854378e-01
  3.1848586e-01
  6.1494384e-02
 -1.6389057e-02
  1.7377733e+00
  2.5776871e-02
 -8.2915530e-02
  2.6557413e-01
 -1.9542769e-02
 -1.9432824e-02
 -2.5521842e-01
 -1.9381097e-02
  5.3763529e-03
  3.8490672e-02
  3.9773446e-02
  1.4546624e-02
  3.2478806e-01
  3.9798847e-01
  4.8191613e-01
 -4.6694647e-03
 -5.4441690e-02
  2.0470537e-02
 -4.7287825e-03
 -1.9306427e-01
 -7.6318882e-02
 -1.6176356e-02
 -3.8593419e-02
 -4.0310986e-02
  2.0621425e-02
 -1.7694097e-02
  1.3402699e-02
  1.3858049e-02
  2.0379908e-02
  5.6076229e-02
 -2.1748993e-01
  2.4627468e-02
  2.0135045e-02
 -5.7931904e-02
  5.7065873e-03
 -9.7397435e-03
 -1.5995920e-03
  2.0290722e-01
 -3.9381426e-02
  3.0530078e-02
 -1.9973844e-01
  2.3358223e-01
 -2.9942671e-02
  4.9936686e-02
  1.4238655e-02
  2.4473205e+00
 -5.4325067e-02
 -1.0970169e+00
  2.3458770e-01
 -5.1105732e-01
  6.3413739e-01
  8.4361756e-01
 -1.2157166e+00
 -5.1018375e-01
 -3.2083979e-01
 -7.8494954e-01
  5.3872265e-02
 -9.9634266e-01
  6.9416714e-01
  9.7622825e-03
  2.8751418e-01
  3.4505254e-01
 -9.1521675e-03
  1.0216475e-02
 -2.0366473e+00
 -2.5649509e-01
 -9.0902412e-01
 -5.5351157e-02
 -2.5200167e-01
  5.0997813e-03
  7.8922844e-01
  7.2314098e-02
 -2.8104123e-02
 -9.3899623e-02
  4.6089269e-02
 -1.0267118e-01
  6.5761107e-01
 -1.0373395e-02
 -2.0688711e-01
  1.7683738e-01
 -6.0020342e-02
 -6.9927108e-01
 -2.6226243e-01
 -6.4387548e-01
  2.0263524e-01
  1.4123298e-01
 -3.5414934e-02
 -5.4935422e-03
  3.6377829e-02
  9.0209998e-02
 -5.9004974e-02
  6.1961971e-02
 -1.2277430e-01
 -4.4668593e-02
 -6.2200665e-02
  6.0456268e-02
  2.4598178e-02
  5.4001819e-02
 -9.8413881e-03
 -3.5383442e-01
  6.0783798e-01
 -3.7407012e+00
 -1.2267480e+00
 -6.7568600e-01
 -5.2054316e-01
  2.8731701e-01
 -3.5251445e-01
 -9.9861121e-01
 -7.9662430e-01
 -3.8979161e-01
 -9.8258847e-01
  9.2192060e-01
  3.1732881e-01
 -4.0602469e-01
 -6.3273638e-01
  6.0241180e-03
  1.8384030e-01
 -2.2863820e-01
  3.2933036e-04
  4.4709682e-01
  7.3759395e-01
  1.1905158e-01
  3.4308672e-01
 -3.5204461e-01
 -9.6577340e-01
 -6.2590048e-02
  6.3882226e-01
  4.5051122e-01
 -4.6770397e-01
 -7.7127254e-01
  1.1992404e+00
  2.2315893e-01
 -1.8426942e-02
 -7.6154906e-01
 -3.7160080e-02
  4.5353997e-01
 -3.6177632e-01
  5.0269568e-01
 -1.4515998e+00
 -6.5948945e-01
  4.1107145e-01
 -2.1783799e-02
  1.8626691e-01
  1.7076828e-02
  1.9762163e-01
  6.0688917e-02
  4.8690632e-02
  7.8071891e-03
 -1.2927402e-02
  2.4755545e-02
 -3.9180830e-02
  2.7827704e-02
 -5.7660814e-02
  1.5517753e-01
 -1.4899153e+00
  3.2683790e-01
  1.4666691e-01
 -1.3199071e+00
 -9.8688895e-01
 -2.4019065e+00
 -7.9301524e-01
  2.7414888e-01
 -1.5700325e-01
  4.2086784e-02
  1.2208191e+00
  6.5023136e-01
 -1.0161592e+00
  3.7318966e-01
 -1.9261621e-01
 -7.5840145e-02
 -3.3400705e-01
 -3.1032285e-01
  6.1560411e-02
 -6.7113495e-01
 -1.2425780e+00
  7.7458564e-03
 -2.7961192e-01
 -9.6440893e-03
 -2.7327153e-01
 -3.7518207e-03
 -2.8959733e-01
 -6.1350894e-01
 -1.9080375e-01
 -2.0052464e+00
 -8.1417042e-01
 -1.4970853e+00
  1.4001868e+00
 -8.0654703e-02
 -8.4821945e-03
  8.4153809e-02
 -9.4806410e-02
  6.1757833e-01
 -1.9735634e+00
 -9.1924638e-01
 -1.4102319e+00
 -8.0411142e-01
 -3.5120550e-01
 -2.0508210e-01
 -2.3008814e-02
  1.0370709e-02
  3.5553802e-02
 -1.2107476e+00
 -1.5279979e-03
 -9.9664815e-03
  4.1743893e-02
 -6.3007595e-03
 -9.8584078e-02
 -3.5639718e-02
 -6.8490624e-01
 -1.2492263e-01
  2.8151339e-02
 -3.9779011e-02
  2.8045562e-01
 -3.9667659e-02
  3.1743577e-01
 -1.2212784e-02
 -3.1966556e-02
  1.2927684e-01
 -2.0912752e-02
 -1.1237818e-01
  7.8862555e-02
  8.7060139e-02
  1.5274619e-01
  3.9245039e-03
  5.5479418e-02
  1.2742741e-01
 -2.5618111e-03
  4.7190793e-02
  1.0271485e-01
 -3.0785503e-02
  1.6170235e-02
 -3.8561646e-02
  1.3364974e-02
 -1.5990280e-01
 -6.2170058e-01
  7.1869023e-02
 -1.9336360e-02
 -4.1363135e-02
  6.1324337e-03
  9.6643484e-01
  8.1391372e-02
 -7.8122611e-03
  2.9933453e-03
 -4.4892420e-04
  7.0844055e-04
 -1.0009575e-02
  7.6196115e-03
  4.5067258e-02
 -2.7723547e-02
 -4.5651749e-02
  8.9236163e-02
  3.0091517e-02
 -2.7848756e-02
 -2.0158063e-03
  2.8158300e-02
 -8.8663012e-02
 -4.2827483e-02
 -2.6605615e-02
 -8.4268693e-03
 -2.7978454e-02
 -1.1405116e-01
 -1.1478485e+00
 -1.4632066e+00
  1.3155012e+00
  8.7737441e-01
  1.0621028e+00
 -7.6164174e-01
 -1.5114089e+00
  1.8223713e-01
  1.4985375e-01
  7.9460755e-02
 -1.7997572e-01
 -3.3141911e-01
 -6.7232114e-01
  1.9496723e+00
  1.6594714e-02
  2.4601219e-03
 -1.5163472e-01
 -5.4516524e-01
  1.4075102e+00
  2.5154039e-01
  2.8883982e-02
  6.0662109e-02
 -7.2223954e-02
 -8.8737737e-03
 -1.5830456e-01
 -6.5780669e-01
 -4.8146957e-01
  3.1380901e-01
 -2.9736282e-03
 -8.6272752e-01
 -2.2523315e-01
 -7.5962521e-02
 -1.4076342e-01
  1.0257913e+00
  1.2459536e+00
 -6.9996365e-03
  6.1998641e-01
  1.9521601e-01
 -4.6230358e-01
  3.6024374e-01
  5.8557731e-01
 -1.6028753e-01
  1.5906261e-01
 -5.0590847e-02
  5.1681947e-02
 -2.1578395e-01
 -3.2129042e-02
 -2.1314658e-02
 -6.3641503e-02
  3.6994085e-01
 -1.3343632e-01
  2.2331429e-01
 -2.0071903e-01
  5.3415515e-02
 -4.0889579e-01
  8.2169682e-01
  2.1218617e-02
  1.4639248e+00
 -5.9919792e-01
 -7.7171052e-01
  3.3683568e-01
 -2.0152088e-01
 -2.1772748e-02
  1.1505813e-01
 -2.0669751e-02
  2.1875814e-02
 -2.6652557e-01
 -2.0113486e-01
  6.4829610e-02
 -3.2346129e-02
 -5.2887361e-02
 -3.3109326e-02
  1.4075368e-02
 -5.6088674e-03
  1.3202889e-01
 -9.0078048e-02
 -8.9366715e-03
 -1.0802979e-01
 -2.4149376e-03
  7.9147696e-02
  1.5121554e-01
 -7.9488000e-03
 -1.8853473e-02
  5.4023385e-01
 -2.6884753e-01
 -3.4768380e-02
 -5.5379629e-01
 -3.3405069e-02
  1.2160587e-01
 -7.2848998e-02
  3.2883275e-02
  2.2617083e-02
 -6.2349182e-01
  9.2439270e-01
  8.6091846e-02
  1.9841076e-01
  5.9313495e-02
  1.2283196e-02
 -2.5397953e-02
  2.9515302e-02
  5.7766389e-02
  5.2575625e-02
  1.0486779e-01
 -1.6731095e-01
  3.3006448e-02
 -8.7973557e-02
  2.4217578e-02
 -6.1978190e-03
  6.3710558e-01
 -8.2760704e-01
  1.2263017e-01
  4.9826279e-01
 -4.1898414e-01
 -6.7418343e-01
 -2.7555777e-03
 -1.6576136e+00
 -3.8624793e-02
 -4.0217727e-02
  6.6525079e-02
 -2.1206567e-02
 -1.9967107e-01
  2.8168771e-03
  5.4201722e-02
 -8.0023549e-02
 -3.9416868e-02
  2.6038971e-02
 -1.0400071e-01
 -5.1288418e-02
 -1.9724028e-02
  3.5868127e-02
  4.1486472e-02
 -1.3097164e-02
 -3.1355213e-02
  1.6468706e-02
  6.5455168e-02
 -1.7311558e-02
 -1.8602990e-01
  7.8600734e-02
 -7.3944211e-02
 -1.8421318e-02
  2.6849601e-02
 -1.6220106e-01
  9.2872009e-03
  9.8515600e-03
  6.7006454e-02
 -1.4206926e-02
  5.5483930e-02
  1.9657020e-01
 -5.9545286e-02
 -1.0498712e-01
  3.1306304e-02
  8.5939076e-03
 -9.2655877e-03
 -2.3950422e-03
 -3.7333131e-02
  9.3027595e-03
 -1.0033972e-02
 -2.0030081e-02
 -2.9575590e-02
 -1.5433024e-01
  2.3521848e-02
  6.4885954e-04
  9.0456039e-02
 -1.2247556e+00
 -4.0757510e-01
 -3.1621078e-01
  7.2822087e-02
  6.2193769e-01
 -1.7804189e+00
 -1.2318472e-01
  8.3256143e-01
 -4.2629075e-01
 -3.9853206e-01
 -4.2468168e-02
  3.9338949e-01
 -2.5575453e-01
 -3.8360048e-02
 -2.1264805e-02
  4.4112522e-02
  5.6427415e-02
  4.4662017e-02
  1.1259669e-02
 -2.0699343e-01
 -6.8291076e-03
 -5.9531868e-02
 -4.2370889e-02
 -2.6709992e-01
 -1.0015302e-01
 -9.8586064e-03
  2.9610706e-02
 -5.4084170e-01
  1.2250350e-01
 -2.8264055e-01
 -3.5768402e-01
 -7.0237227e-02
 -1.0368494e-01
 -2.2331300e-01
 -1.5005320e-01
  8.2753420e-02
  6.4643346e-02
  1.6713530e-01
 -6.8220556e-01
  1.2678272e-02
 -1.0643612e-01
 -1.6367141e-02
 -4.7085918e-02
  6.1719239e-02
  4.7906857e-02
 -1.0933327e-02
 -2.1144493e-01
 -3.0037713e-01
 -2.3951380e-02
 -6.4576529e-03
  1.3574532e-02
 -7.9985466e-03
 -8.3233258e-03
  7.1227807e-03
 -3.8425747e-01
  8.8330686e-01
  5.6800312e-01
  4.2599151e-01
  6.1009187e-02
 -5.5303270e-01
 -2.9008007e-01
 -6.0207039e-01
  1.8372835e-01
  2.2115728e-01
  8.4115297e-02
 -3.3917761e-01
  9.5229439e-02
  2.3530245e-01
 -4.6932153e-02
  3.2793086e-02
 -1.6762881e-01
 -9.5831960e-01
  2.2242125e-03
 -1.0001791e+00
  1.2119429e-02
  2.6163796e-01
 -6.1316943e-01
  1.3878467e-02
 -1.0912495e-02
 -7.2752357e-01
 -5.2636462e-01
 -8.8668413e-02
 -6.5718234e-01
 -5.8482975e-01
  8.8942230e-02
 -6.6619384e-01
  3.4912128e-02
 -2.1408628e-01
  4.8619428e-01
  2.0647542e-01
  7.7995539e-02
 -8.2882172e-01
 -9.0713549e-01
 -1.8862349e-01
 -6.0088933e-01
  6.4977683e-02
 -6.3326836e-02
  5.9701287e-04
 -4.2315299e-04
 -2.6034532e-02
  2.6406369e-01
 -1.0498142e-02
 -5.1566835e-02
  7.5181030e-02
  2.3203501e-02
  3.3895448e-02
  1.9413045e-02
  9.0543222e-01
  5.4127419e-01
  2.1548076e+00
 -1.1004574e-01
  8.2644850e-02
  2.4968345e+00
 -1.4217916e+00
  3.2658771e-01
 -4.8447633e-01
 -3.0010188e-01
 -1.0204449e+00
 -6.0311466e-01
 -7.4771649e-01
  1.7841578e+00
 -1.9855009e-01
 -3.6137044e-01
  4.2596675e-02
  7.5810713e-01
 -4.1012180e-01
  2.1577109e-01
 -9.4888389e-01
  5.0165009e-01
  7.3803276e-02
  1.0253598e-01
  9.4471186e-02
 -2.2956078e-01
  9.5867717e-01
  2.1301085e-02
  2.4930887e-01
 -8.0765700e-01
  8.7050521e-01
 -2.4829476e+00
  1.0403690e+00
  6.6485637e-01
 -1.4602011e+00
 -7.2467335e-02
  4.1115192e-01
 -4.6634495e-01
 -5.0835288e-01
  4.2984056e-01
 -6.0390627e-01
 -2.9417435e-02
  7.7371281e-01
 -1.6626503e-01
  2.4486189e-01
 -1.4245871e-01
 -1.1693028e-02
  3.4715608e-01
 -2.6212172e-03
 -3.6123234e-01
  6.0034406e-01
  1.7125087e-02
 -5.8360461e-02
  5.7427190e-02
 -3.1913650e-01
  8.7747979e-01
  5.2842926e-02
  1.4614067e+00
 -2.1952097e+00
  2.5851011e-02
  2.1314232e+00
  4.8900053e-02
 -6.6919643e-01
  7.6090139e-01
  5.3665304e-01
  1.1942104e-01
  8.8565511e-01
  1.1732836e+00
  4.5136654e-01
  1.2159788e-03
 -4.8932713e-03
  6.7776746e-01
 -2.9072903e-02
 -1.7037618e-01
  1.5074896e-02
 -1.1648140e+00
  7.9706895e-01
  1.1232831e+00
  6.5406358e-01
  1.0972407e-01
 -3.9174089e-01
  7.3247379e-01
  1.5609048e-01
 -9.5541328e-01
 -5.0861884e-02
 -4.8950699e-01
  3.1835753e-01
 -1.7313969e-01
 -1.3413770e-01
 -3.2597031e-02
 -3.8475871e-02
 -2.5984973e-01
  9.2286892e-02
 -1.1850308e+00
 -6.9338577e-03
  1.3310753e-01
 -4.0667783e-02
 -6.9239652e-03
 -1.7274964e-01
  1.6210565e-01
  6.9507933e-03
  2.4519598e-02
 -6.4954445e-02
  4.1562903e-01
 -6.0415644e-02
  2.2352831e-03
 -8.5781459e-03
  5.2401677e-02
  2.5585932e-01
 -2.5298092e-01
  3.1785107e-01
  2.9632345e-02
 -2.6544103e-01
 -7.6404482e-01
 -1.3622060e+00
 -1.7368914e+00
 -2.7205419e-02
  2.0663939e-02
  3.8944665e-02
 -1.0793162e-01
 -6.9811964e-01
  2.6637331e-02
  5.0124961e-01
 -2.7968394e-02
  4.0446524e-02
 -1.0015126e-01
 -9.8769451e-03
 -7.1875647e-02
  2.3801289e-02
  1.3964674e-01
  1.5269319e-02
  4.0663980e-02
 -3.0398393e-02
  6.3085794e-03
  3.7158359e-04
  1.7518786e-01
 -5.9948102e-02
  8.9680165e-02
 -4.7156104e-01
 -1.1771984e-01
  1.0899006e-02
 -5.3587213e-02
  5.4340418e-02
  1.4065450e-01
  2.9791925e+00
 -3.9208624e-01
  3.5540867e-01
 -1.9391489e-01
 -2.1222572e-01
  1.7525185e+00
 -1.0838493e-01
  5.6403652e-02
 -1.4666886e-02
  2.1901049e-01
  1.6525781e-01
 -3.7969008e-02
  7.0563354e-02
 -2.0867608e-01
  1.8666247e-02
 -1.1803168e-02
  1.2440159e-02
 -3.7235714e-02
  1.5799922e-01
 -3.8535604e-01
  1.3535297e-02
 -1.3082311e+00
  8.5558271e-01
 -9.9603988e-02
 -1.6464539e-01
 -6.3731694e-03
  8.8826507e-02
 -3.4939367e-02
 -2.0030171e-02
 -1.7349532e-01
  2.1877709e-01
 -1.3377299e-02
  1.7037271e-01
 -5.7519726e-02
  2.3157550e-02
  2.6049864e-02
 -5.4370869e-02
 -2.5725001e-01
  2.8746959e-02
 -1.9488262e-01
  6.8865251e-03
 -6.1309714e-02
 -5.4646684e-03
  1.2005804e-02
 -2.9480839e-02
 -1.9419749e-01
  1.0799468e-02
  2.6815951e-02
  2.8885642e-02
  3.8733012e-03
 -2.3867298e-02
 -5.0722989e-03
  1.1050957e-01
  4.3225097e-03
  1.3476843e-02
 -1.5424041e-02
  5.8654826e-03
 -3.1634560e-01
 -5.8213562e-02
 -3.5052717e-02
  6.9754742e-02
 -3.1842317e-03
  2.9963858e-03
  1.0273604e-01
 -3.2832459e-02
 -9.5729064e-03
  2.6114931e-02
  2.8512608e-03
 -4.4093974e-02
  2.1086060e-02
 -1.1595454e-01
 -3.3490993e-02
  1.1883368e-02
 -4.8544830e-01
 -2.5993306e-02
  4.6805081e-01
  1.3612244e-01
  4.0760878e-02
 -1.0282866e-01
  2.0159667e-02
 -5.8954783e-02
 -1.5227837e-02
 -2.0425067e+00
  4.3077487e-03
 -5.8873985e-02
  6.8377145e-02
  6.6453002e-02
  1.4899112e-02
 -7.0434913e-02
 -3.2987017e-02
 -1.6432452e-03
 -2.2154844e-03
  2.3060378e-01
 -1.5638310e-02
 -6.3362263e-02
  6.6111945e-02
  4.0417907e-01
  6.5664940e-02
  2.4516664e-02
  4.6707410e-02
  1.5191598e-01
  3.2039308e-03
 -1.6511964e-02
  1.1804500e-03
  1.7480839e-02
 -1.5261858e-02
 -1.6700070e-01
 -3.9290339e-03
 -6.1100453e-02
  4.1422308e-03
 -6.4806543e-02
 -6.7543514e-02
  2.3248004e-02
 -3.0890394e-02
 -7.3728494e-02
 -2.3415428e-02
 -2.6208148e-03
 -4.2919941e-02
  4.5137357e-02
 -2.1542322e-02
  3.1930041e-02
  7.9623368e-03
 -7.0578866e-02
  5.7854012e-02
  2.3844477e-02
 -5.3160181e-03
 -1.7458981e-01
  5.6859013e-02
  3.7399983e-01
 -4.2031291e-01
  1.0326676e+00
  5.2256588e-02
  7.4704797e-03
  7.5191319e-02
  5.9106838e-02
 -1.8107748e-02
  1.4059944e-02
 -3.0638561e-01
  2.7238507e-02
  8.8413656e-03
  8.8982284e-03
 -7.5001461e-03
  4.5155174e-01
 -9.7211907e-03
 -1.9162238e-02
  1.6831966e-02
 -8.1707843e-02
  1.6330452e+00
 -3.7383796e-03
 -2.0612266e-02
 -3.3329137e-02
  1.6219063e-02
  3.4996599e-02
 -7.9913758e-02
  1.8116346e-02
 -8.2044408e-02
  8.4326617e-02
 -1.0394556e-01
  6.4619603e-03
  4.0862758e-02
 -5.7309356e-02
 -7.9255596e-02
  7.0611531e-01
  1.9836295e-02
  3.6466449e-02
 -1.2634746e-04
 -4.3590851e-02
  1.3504810e-02
 -7.0666119e-02
  5.4525673e-02
 -1.5660760e-01
  1.7165827e-02
 -1.1420526e-02
  1.1132190e-01
 -1.3128805e-02
 -4.2378120e-03
  3.5582680e-02
  2.1234754e-02
  9.6536890e-02
  1.3856699e-01
  1.4226098e-01
  1.4636790e+00
 -1.8485628e-01
  1.0560009e+00
 -1.0236667e+00
 -1.8939564e-01
 -4.9109110e-01
  9.9856481e-02
  2.6726931e-01
  2.6949924e-01
  3.8364065e-01
  9.1011870e-01
  8.3716857e-01
 -1.5797853e-02
  2.5406472e-02
 -7.9818526e-03
  3.3403084e-01
  3.7972636e-03
 -1.0020748e-01
  1.2180400e-02
 -6.2095909e-04
 -1.4951356e-01
  1.0472318e-01
  4.0587643e-01
 -3.0107582e-01
  5.3053986e-02
 -5.2611232e-02
 -3.4270395e-02
 -9.8441184e-02
 -3.4387732e-01
  9.6086062e-02
 -2.0921186e-02
  6.4175823e-03
 -7.5410247e-02
  1.8661371e-01
  1.7439094e-01
  5.9001070e-01
 -2.7655086e-03
  8.5180581e-02
 -1.3068502e+00
  4.2359206e-01
  6.6938952e-02
  6.8117790e-02
  5.3071076e-01
  2.4564188e-02
 -2.8351495e-02
 -1.1631040e-02
  9.3742860e-03
 -8.5884906e-02
 -1.2467337e-02
 -1.7462078e-01
  1.0535874e-01
  1.9469475e-02
  6.6300989e-03
  9.9173924e-03
  1.0484875e+00
  8.2821265e-02
  2.5079939e-01
  1.4425289e-02
  8.4378265e-02
  1.9408503e-01
 -7.1157432e-01
  1.1832843e-03
 -7.6572768e-02
  4.4774581e-02
 -8.0513634e-02
 -7.3142331e-03
 -8.8641550e-03
  1.2677757e-02
 -5.5931460e-02
 -9.5001124e-02
  3.2195081e-03
 -2.0536011e-02
 -2.2947146e-03
  3.3952095e-02
 -3.3074483e-01
 -5.4313425e-02
 -2.3988322e-03
 -6.2661789e-02
 -3.5778428e-03
  1.0760634e-02
  1.6500937e-02
 -6.6423188e-03
 -8.9067951e-02
 -7.1334451e-02
 -9.0543814e-03
  1.4125217e-01
 -1.1322492e-02
  2.9883537e-02
  2.3221945e-02
 -1.5247418e-02
 -1.0121270e-01
  3.9868321e-02
  1.5471624e-01
  6.0866714e-02
  1.0912737e-01
 -5.6452095e-03
 -6.4860173e-02
  2.8888145e-02
  1.3416683e-02
  6.5637897e-03
  4.0531654e-02
  1.9648705e-01
 -4.1087829e-02
 -5.3884469e-02
  5.3183086e-02
  3.1193265e-01
 -3.6814138e-03
  3.9688376e-01
 -2.0392635e-01
 -2.0911385e-01
  2.9837197e-01
 -6.9506443e-01
 -9.0680540e-01
  3.5306521e-02
 -3.5969745e-02
  1.6808879e-01
  2.0075096e-02
 -9.0726269e-03
  9.8509423e-02
  8.8312384e-03
 -8.5463831e-03
 -1.3333312e-01
 -1.6513905e-01
 -4.2607736e-02
 -1.7643735e-01
  1.8719945e-03
  4.6840082e-03
 -6.4347789e-02
 -4.1504152e-02
 -8.8788010e-02
 -7.7584416e-02
  7.6540098e-02
 -2.1655483e-02
  1.8306550e-02
 -1.1697392e-01
 -8.0383252e-03
 -2.8251490e-02
 -6.5624174e-03
 -9.8122843e-03
  1.4891092e-02
 -1.1470685e-02
  9.3615577e-02
  1.2381408e-02
 -1.8030418e-01
  4.2333022e-02
  1.1840710e-02
  4.8332152e-01
 -4.0305112e-02
 -1.3934948e-02
  2.5589848e-02
 -6.7532635e-01
 -1.2889422e-02
 -4.9989928e-02
 -1.4837493e-02
  3.4762625e-02
  1.5639128e-02
  8.4813528e-02
  2.3813553e-02
  4.9261495e-02
 -1.9852256e-02
  4.7347355e-03
 -1.6173261e+00
  7.7835506e-01
 -3.0120841e-01
 -1.1391492e+00
  9.9773854e-01
  4.6530205e-01
 -1.3581469e+00
 -7.7617276e-01
  2.6013520e+00
  2.5245449e-01
  4.2837918e-01
 -1.5285009e+00
  7.5325209e-01
 -8.6189163e-01
  3.6175856e-01
  9.9407578e-01
 -1.7699290e-02
 -2.3279859e-01
  1.1404356e-01
  9.5837645e-02
 -1.6493937e+00
  1.3191302e-01
  4.7324556e-01
  7.9971820e-02
 -3.0492073e-01
  7.8117371e-01
 -7.8093815e-03
 -3.7971568e-01
 -2.1101919e-04
 -5.7127899e-01
  1.3156332e-01
  3.7383169e-01
  5.9249383e-01
 -1.4674352e+00
 -1.9031204e-01
 -3.1293085e-01
 -1.5300062e-01
 -7.6041794e-01
 -8.0364805e-01
 -6.5563098e-03
  5.3802127e-01
  1.9698499e+00
  6.7874588e-02
 -1.1943093e-01
 -6.4685456e-02
  3.4890886e-02
  1.8041675e-01
  4.6317440e-02
  3.3150619e-01
  1.2444282e-02
  1.9342662e-01
 -1.1772791e-02
  3.2574520e-02
  8.4177434e-02
  2.8525766e-02
 -1.1636401e-02
 -5.0579544e-02
 -5.5129235e-03
 -9.7030781e-02
 -1.2127940e-01
 -6.2265852e-03
 -2.8605361e-02
 -1.7838439e-02
 -1.9453041e-02
  5.8997091e-02
 -6.6253319e-02
  9.2379525e-03
  7.9866789e-02
  4.0088221e-02
 -8.1520726e-04
  2.6527857e-02
 -8.0192141e-02
 -2.4511455e-02
  9.8428816e-02
 -3.7728599e-01
 -2.8800653e-02
  5.5383742e-02
  5.6226380e-02
 -1.4568272e-02
 -8.5674405e-02
  3.0468816e-02
 -1.1712360e-01
 -1.5108122e-02
 -3.9471570e-02
  4.1467745e-02
 -2.9604079e-02
 -8.2085855e-02
  7.9938313e-03
 -2.0906907e-03
 -5.3385686e-02
 -2.7001897e-02
 -6.0241543e-02
  3.0011227e-02
 -1.4715573e-02
 -2.8421614e-02
  5.3599980e-02
 -5.3406183e-02
  4.6709195e-02
  3.8344260e-02
  1.9290706e-02
  1.4983054e-03
  2.9257605e-02
 -4.8767690e-02
 -3.0126955e-02
 -9.1614008e-02
  2.0767497e-02
 -1.7024451e-01
 -3.1620607e-02
  2.0073724e-01
  3.7555029e-03
  9.6525811e-02
 -1.2892076e-01
  1.6172366e-02
 -1.0862836e-01
 -2.4793565e-03
  4.6617318e-02
 -5.2153733e-02
  1.7225044e-02
 -5.5649471e-01
 -3.0993348e-02
 -1.8680481e-02
 -1.0756409e-01
 -7.5336210e-02
  1.0447532e-01
  1.5007697e-02
  3.3695504e-02
 -1.7341773e-01
 -1.1967901e-01
 -5.4441760e-03
  3.9419878e-02
 -1.1867141e-01
  7.9884596e-02
  2.8698904e-02
 -1.3726111e-02
  2.2751650e-02
  1.0142269e-01
  1.3483522e-02
 -1.1265238e-02
 -3.8303494e-02
 -3.1230611e-01
  8.4376790e-02
  1.4516894e-02
 -6.5430962e-03
 -3.3170827e-02
  3.6190508e-03
  6.2482287e-03
 -2.8305925e-02
 -1.4198833e-02
 -2.3581879e-03
  1.6450234e-02
  7.3146825e-03
  6.4852729e-02
  9.7807217e-03
 -9.3009146e-03
  7.2336704e-02
  2.9599735e-01
  1.5476445e-02
 -5.2875545e-02
  1.1497968e-02
  1.0707355e-01
 -6.5461650e-02
 -2.9942708e-02
  7.6827757e-02
 -5.9465271e-01
 -9.4806246e-02
 -3.7329844e-01
 -2.4452803e-01
 -1.4985771e-01
 -1.1611850e+00
 -2.4487352e-01
  8.6082734e-02
 -6.3827552e-02
  5.2867923e-03
  8.5589159e-03
 -4.7867611e-02
  6.2816362e-03
 -7.8516781e-02
 -1.0744805e-02
 -1.4828476e-01
 -4.0306479e-02
 -6.0110863e-02
 -6.9003209e-02
  4.4517056e-03
 -6.0262565e-02
 -7.7098854e-02
  1.4977411e-02
 -4.1434458e-03
  7.5475313e-03
  9.4839945e-02
  1.0060215e-01
  6.8380055e-04
  4.0760998e-02
 -1.6665219e-01
 -1.4165407e-03
  9.9324277e-03
 -4.9185473e-02
 -5.3488202e-02
  1.2230489e-03
 -2.0595826e-01
  3.6852874e-03
  2.9659603e-02
 -2.3495529e-02
  1.8593505e-02
  3.6838833e-02
  1.0801025e-02
  2.9988682e-02
  2.8668035e-02
 -5.2486821e-03
  2.7482244e-03
  5.9476655e-02
  4.0099513e-02
  2.7368732e-02
 -2.7542152e-02
  5.5113073e-02
 -3.3612612e-03
 -9.2970120e-04
 -9.5319472e-02
  6.4293839e-02
 -1.1845484e-02
 -4.1438848e-02
  1.1416429e+00
  4.2557463e-02
 -3.7262816e-02
  1.2558226e-02
  2.0703346e-02
 -3.4720056e-02
 -4.9492218e-02
  8.0296415e-01
  2.0195374e-02
  1.2589131e-02
  1.5343812e-02
  4.5611143e-02
  3.6154587e-02
  3.9870150e-02
  4.3466698e-02
 -2.9305628e-02
 -2.5780585e-03
 -4.5581453e-02
 -3.2426056e-01
  6.6676508e-03
 -5.2385118e-02
  2.1153761e-02
 -3.4966722e-02
  2.2520375e-02
  2.1256987e-02
 -3.7100345e-02
  3.8046807e-02
  4.7162939e-02
  6.3562080e-02
 -1.0295858e-01
 -9.6249338e-03
 -1.0603927e-02
 -6.9884561e-02
  7.6204717e-02
 -1.1633213e-01
 -2.2581315e-01
  3.4423418e-02
  2.2214005e-02
  8.4676035e-02
  1.8487306e-01
 -1.5094069e-02
  1.8184654e-02
  8.8410191e-03
 -1.2320277e-01
  7.6556124e-02
  1.2610433e-02
  8.0531552e-02
  3.5967272e-02
 -5.4723650e-02
 -2.2341482e-02
  6.0150123e-01
  6.6675776e-01
 -1.1320580e+00
  2.9420477e-01
 -1.0671400e-01
  7.6780397e-01
  2.5214925e-01
 -1.5872450e+00
 -8.2300138e-01
  1.4346331e-01
 -9.5862246e-01
 -1.5605925e+00
 -7.4281585e-01
  1.1963695e-01
  7.8113592e-01
  4.1001269e-01
 -1.4919255e+00
 -3.8410062e-01
  4.4513769e-02
  3.1481412e-01
  1.0437295e+00
 -1.4621655e-02
  2.7822009e-01
 -1.8152764e-02
  5.8323842e-01
  1.4568186e-01
  1.2713353e-01
  4.6543202e-01
 -1.2905835e-01
  1.0451680e+00
  1.6172360e+00
  3.4650019e-01
 -1.0410995e+00
  3.4370914e-01
 -5.4694391e-03
  7.8530508e-01
 -2.5090575e-01
 -6.5099269e-01
 -4.5469429e-02
  1.2744552e-01
  1.7108110e+00
 -1.9131641e-01
 -1.1733806e-01
  9.5521337e-01
 -2.6580298e-02
  2.5440382e-03
  1.0269751e-01
 -2.5713387e-01
  1.0439101e-01
 -3.1131124e-01
 -4.0502243e-02
  6.7180991e-02
 -1.2624257e-02
 -6.3613638e-02
 -9.4813384e-02
  3.2386359e-02
 -3.1976566e-02
  6.4591840e-02
 -1.4761737e-01
  4.3015862e-03
  4.4906918e-02
 -3.3889446e-02
  9.0333410e-03
 -1.5624556e-02
 -1.0473983e-02
  2.7296808e-02
 -1.9574381e-02
 -7.9857901e-02
  3.1535555e-02
  3.8949607e-03
 -7.1051651e-01
 -7.0381537e-02
 -5.7678357e-02
 -4.7412064e-02
 -4.3512885e-02
 -1.3328755e-02
 -8.9458888e-03
 -1.3005508e-02
 -5.7403274e-02
 -1.1194994e-01
  4.0141639e-01
 -4.6871088e-02
 -1.5640269e-01
 -1.0935911e-02
  2.1117955e-02
 -5.1611103e-02
  4.7039986e-03
  9.3834680e-03
 -7.3213824e-03
 -5.2970167e-02
 -1.4671884e-02
  4.7995470e-02
 -5.3052817e-02
  7.0716374e-02
 -4.0349446e-04
 -1.9613046e-02
  1.2886203e-02
 -2.9155236e-02
  5.9105095e-02
 -2.9072309e-02
 -9.9024354e-03
  6.4681876e-01
 -3.3563547e-02
  3.1883851e-02
  2.6106291e-02
 -9.9988773e-02
  3.4443289e-02
  1.5738327e-02
  7.2739986e-03
 -4.8881787e-01
  6.6657054e-01
  1.6480931e+00
 -1.0163015e+00
  2.2217825e-02
 -2.4515488e+00
 -1.7261153e+00
  5.8575690e-01
 -3.7476623e-01
  2.4247763e-01
 -8.8109726e-01
  1.7565225e+00
  4.2469658e-02
  5.4292154e-01
 -5.0391793e-01
 -3.9185271e-01
 -3.3952273e-02
 -2.7051154e-01
 -9.7591907e-02
 -3.6426149e-02
 -4.5935318e-01
  1.7939705e-02
  1.7126964e-02
 -1.6761652e-01
  2.7942264e-02
  4.7308588e-01
  8.6259782e-01
  1.4486700e-01
 -1.1116170e+00
 -2.6912441e+00
 -7.5627409e-02
 -6.1238322e-02
 -2.9198036e-01
  3.5174921e-01
  1.0405334e+00
 -1.2302383e+00
  2.3112226e-02
 -1.2054675e+00
 -2.6284873e+00
  1.8996046e-01
 -7.0621800e-03
 -2.1237093e-01
 -1.2736331e-01
 -5.6054518e-02
 -2.4542627e-03
 -4.9834870e-02
 -1.6430205e-03
 -1.1432851e-02
 -1.2196709e-02
 -6.9495022e-02
  9.1414429e-02
 -1.4777443e-01
  8.0248684e-02
 -8.4873444e-01
  1.5450395e+00
  1.9621308e+00
  1.6355814e+00
 -1.1172571e+00
  2.6806476e+00
  1.1803099e+00
  1.2413327e+00
 -4.7714934e-01
  5.1234975e-02
 -3.1613946e-01
 -3.3082587e-01
 -1.8409615e-03
 -2.8778017e-01
 -1.0269492e+00
  4.5741044e-02
 -4.2580701e-02
  2.1496102e-01
  8.5025750e-02
  2.0095425e-02
  9.4011249e-03
 -1.4106897e-02
 -1.9737934e-01
 -4.0913686e-02
 -1.0431140e-01
 -4.8430942e-02
 -9.2146888e-02
 -1.1620491e-01
 -5.1649213e-01
 -4.4593698e-01
  1.2482123e-02
  1.1967754e-01
 -2.4670575e-02
 -8.9163519e-02
  8.6743265e-02
 -2.4194552e-01
 -3.2141102e-03
 -4.7369957e-01
 -2.8644058e-01
 -1.8030678e-01
  5.1793540e-01
  3.2737792e-02
 -1.9881565e-03
  1.5005191e-02
  2.0940717e-02
  2.3695065e-01
 -3.8999069e-02
 -2.5001926e-02
 -4.0970722e-01
 -1.5767226e-02
 -4.9314357e-02
 -1.2006019e-02
 -9.1242455e-02
  7.3903315e-02
  6.5930116e-01
 -1.5426275e+00
  9.5608169e-03
 -1.1588598e-01
 -2.3141944e+00
 -8.7762976e-01
 -2.1574578e-01
 -9.9468833e-01
  1.8681975e-01
 -2.7210748e-01
  1.1830951e-01
  1.7146656e-02
 -7.9269958e-01
 -3.0409473e-01
 -8.8656622e-01
 -1.9369610e-02
 -6.4486611e-01
  5.6250151e-03
  3.1903148e-02
 -1.3817711e-02
 -9.8253623e-02
  2.3901896e-01
 -1.1724497e-01
 -1.9059785e-02
  5.4181074e-03
 -8.8169277e-03
  3.9009430e-02
 -4.8706446e-02
 -2.5041979e-02
  8.0041341e-02
  1.0499746e-03
 -9.5942229e-01
 -4.1817706e-02
  8.4686351e-01
 -3.7307631e-02
  6.0068388e-02
 -7.9563767e-02
 -1.6157771e-02
  3.0604094e-01
  1.3408389e+00
 -5.6119852e-02
  3.5113383e-02
 -8.2866126e-01
  1.8028146e-02
  1.4675435e-02
 -6.8237334e-02
  2.0796357e-02
  1.9360598e-02
 -7.7845293e-01
 -1.1100084e-02
 -2.0463459e-02
  4.4540066e-02
  4.2104629e-01
 -4.0909406e-03
 -1.5405333e-02
 -4.3036136e-01
  2.1476857e-01
 -6.4289518e-02
 -5.7885373e-01
 -2.0877066e+00
 -1.6233180e-01
 -5.3087607e-02
  1.1761038e-02
  1.2053977e+00
  2.0129688e-02
 -1.5375734e-02
 -7.9973072e-02
 -2.2738211e-02
  1.0474482e-02
 -2.8809421e-02
  8.9647183e-03
 -2.3767173e-03
 -3.7441492e-02
 -9.3932021e-03
  1.4658091e-02
  5.3265143e-02
  3.1219205e-01
  1.2125187e+00
  2.0300495e-02
  7.8215664e-03
 -3.9983772e-02
 -2.3479618e-01
 -7.2880775e-02
  2.8945692e-02
 -6.3321710e-01
  3.1433366e-02
  4.6174571e-02
  1.4358747e-01
 -8.8755111e-04
 -3.8339566e-02
 -3.4997761e-02
  3.1697813e-02
 -3.8375314e-02
 -1.6303334e+00
 -3.4103081e-02
 -1.5580514e-02
  2.0045087e+00
 -3.3650773e-03
  1.7186150e-01
  5.6888435e-02
  8.7266721e-02
  3.9178729e-02
  1.6519712e-02
 -4.7103010e-02
 -1.6121926e-02
  8.1994152e-01
  1.8283458e-03
  9.7632566e-03
 -5.9592438e-01
 -1.1915996e+00
  8.9432903e-02
 -2.2942501e-01
 -1.8428534e-02
  8.4376621e-01
 -1.0628431e+00
  6.0448068e-04
 -2.3359969e-01
 -9.2428163e-02
 -4.8400972e-02
 -6.2015688e-01
  1.7696341e-02
 -1.8403172e-01
 -2.2539474e-02
  1.1978614e-01
 -7.7946526e-03
 -1.4015970e-02
 -1.0561227e-01
  1.0040652e-02
 -1.8552247e-02
  1.0060299e-01
 -1.7546335e-02
 -1.7305000e-01
 -3.0678598e-02
 -6.2456429e-02
 -1.0288586e-01
  1.0750210e-02
 -4.2278167e-02
 -2.3884071e-02
  2.0239048e-02
  7.0780791e-02
 -3.1254970e-02
 -4.0541887e-02
 -1.1198915e-02
 -2.6465483e-02
  3.4875717e-02
 -5.4787388e-03
  5.6946293e-02
 -7.6333171e-01
 -1.9112255e-01
 -3.5541724e-02
  3.3411540e-02
  2.3657335e-02
  3.9726675e-02
 -9.8945104e-02
  1.2782334e-02
  4.5952382e-03
 -2.6164365e-01
  8.0039300e-02
  3.4372136e-04
  1.2694630e-02
  1.1314136e-03
 -7.2708100e-02
  1.3248369e+00
  6.9237983e-01
 -7.6167560e-01
 -1.6728055e-02
  1.4406799e+00
 -1.6917042e-01
  1.0388246e+00
  3.1083688e-02
  2.0221441e+00
 -1.7830087e-01
  1.4801013e-01
 -1.3551144e-01
 -2.4987870e-01
  5.6035281e-03
  1.2630859e-01
 -1.3056506e-01
 -9.4690425e-03
 -2.6161388e-01
  2.4355065e-02
  7.0997126e-02
 -2.5677320e-02
  1.1438455e-02
  6.6100413e-01
  1.1218723e-01
 -5.1674481e-02
 -1.5959732e-02
 -5.5083498e-02
  2.5249930e-02
  2.2869023e-02
 -8.5695393e-02
  2.0505155e-02
  3.3435139e-01
  3.7858885e-02
 -6.3795060e-02
 -1.1693500e-01
 -1.0797308e-01
  3.5261372e-01
  1.8529791e-02
 -3.1635496e-01
  8.7278885e-01
  1.5696343e-02
 -7.5030606e-03
 -5.5842786e-03
 -8.2330042e-01
  1.1248468e-02
  9.1195688e-02
 -5.2440907e-03
 -1.1165357e-01
 -2.4858532e-02
 -1.8692566e-02
  1.3520207e-02
  2.6936281e-02
 -9.2528685e-04
 -4.3273840e-02
  6.7848307e-01
  2.7023038e-01
  8.7695848e-03
  1.6119510e-02
 -5.9496947e-03
 -4.1863460e-02
 -1.6035886e+00
  3.0918874e-02
  1.1458868e+00
  1.6694672e-01
 -3.1999309e-02
 -1.6212482e-02
 -1.6847076e-01
 -6.3199617e-02
  2.4584173e-01
  2.7781511e-02
 -1.1480945e-01
  3.3451401e-02
  1.3390827e-01
  2.8974863e-04
 -7.5596377e-02
  8.0645354e-03
 -7.1616411e-02
  1.5534757e-02
  6.3543387e-02
 -2.7115790e-02
 -7.1193174e-02
  2.3778677e-01
 -6.0606439e-02
 -5.7793524e-02
 -6.2103629e-01
  9.8040309e-03
  1.1366557e-02
 -3.3018731e-02
 -1.2732818e-02
 -6.9716893e-02
  1.6730969e-01
  9.8506808e-02
 -2.6063508e-01
 -7.2632748e-01
 -1.2692223e-01
  1.0985472e-02
  1.0825670e-02
 -6.5690026e-02
  2.5595937e+00
 -1.0213404e-01
  1.4492713e-02
  7.7706948e-03
 -2.7360730e-02
  5.6734256e-02
 -1.9515246e-02
 -2.3394872e-02
 -8.6170901e-03
 -9.4573880e-03
 -3.4635919e-01
 -5.4905444e-01
 -2.6950622e+00
 -1.6228706e+00
  1.8086814e+00
  4.6752748e-01
 -1.6946560e+00
  5.1727146e-01
  1.7166318e+00
 -1.0294143e+00
  4.0876836e-01
 -3.8598919e-01
 -3.6439490e-01
 -1.3569514e+00
  2.5785427e+00
  7.9043698e-01
 -6.7515792e-03
 -1.0717663e-01
 -1.8184878e+00
 -8.0064148e-01
  1.8050231e+00
  9.2467204e-02
 -4.3642458e-01
 -1.1427524e-01
 -6.3470185e-02
 -1.1922907e+00
  1.7526852e-01
  5.3184712e-01
 -2.9755673e-01
  4.6021599e-01
  4.7001275e-01
 -8.6438097e-02
  6.1034918e-01
 -7.4188060e-01
  3.7301779e-01
 -2.4452884e-01
  4.2472205e-01
 -4.5629581e-03
  1.4786186e+00
 -9.4654715e-01
  2.0650017e-01
 -9.6345514e-01
 -1.0893025e+00
 -3.1483504e-01
  6.4117926e-01
  7.0988053e-01
  1.0508366e-02
 -3.7933975e-01
  7.6217614e-02
  1.1026102e-01
  9.5395046e-01
 -4.8198849e-02
  4.5346972e-03
  4.5791332e-02
 -5.6402153e-01
 -8.4825307e-01
 -1.5139543e+00
  3.2046854e-01
  1.9834340e+00
 -6.6584188e-01
 -7.0089036e-01
 -6.6638954e-02
 -2.7208228e+00
 -4.8846278e-01
  1.4571538e+00
  6.0226417e-01
 -9.8545951e-01
 -2.3144911e-01
 -2.2295217e-01
  6.1608925e-03
 -7.1795183e-01
 -5.8332789e-01
  3.7734964e-01
  1.5730819e-02
  3.3315599e-01
 -1.3234006e+00
 -9.1613472e-02
  1.8071610e-02
  5.6044471e-01
 -4.1087827e-01
  4.0172660e-03
  6.8307549e-02
 -8.1296684e-03
 -9.8835617e-02
  5.6884867e-01
  7.0609027e-01
 -1.5744133e-02
  5.2587277e-01
  7.3145173e-02
 -2.0977759e-01
  4.6918172e-01
 -9.6969116e-01
  1.0573285e-01
  1.2352051e-01
 -5.1005256e-01
 -1.0537199e+00
  2.0497867e-01
 -3.3385091e-02
 -3.5813054e-01
 -5.9873223e-02
 -4.9557808e-01
 -2.1447334e-02
 -5.6547177e-01
 -3.5306703e-02
 -7.6332181e-03
 -6.7918492e-03
 -3.8252696e-01
  1.6180201e-02
  5.4055625e-01
 -1.5675412e+00
  1.5000366e+00
  3.6870059e-01
  2.1720958e-01
 -1.6760692e-03
 -6.3787794e-01
  2.8126356e-01
 -8.6701989e-01
  3.5626510e-01
 -1.1101332e-02
  1.4046081e+00
  2.8473532e-01
  3.4225306e-01
  1.2448261e+00
 -2.0892261e-01
 -4.8872627e-02
 -1.3625436e+00
 -1.3381310e+00
 -4.0229663e-01
 -2.8626648e-01
 -5.3558475e-01
  7.0328814e-01
 -1.1121666e+00
  9.5905054e-01
  1.1782110e+00
  1.1517751e+00
  1.0957248e-01
  4.4347948e-01
  1.8340839e-01
 -1.1904684e+00
 -3.1648257e-01
  6.5526086e-01
  9.4362223e-01
 -1.5226209e+00
  4.4275028e-01
 -9.2575592e-01
 -4.3949771e-01
 -4.7919437e-02
 -3.0789119e-01
  7.4101847e-01
  1.5114435e+00
  1.4248598e+00
  8.7311126e-02
 -1.0519328e+00
  3.5035051e-02
 -5.0214477e-02
  4.0891916e-01
  5.0548112e-01
 -5.3996640e-01
  1.3250399e+00
  1.1230723e+00
  2.1348007e+00
  1.2163402e+00
 -4.0236104e-01
  1.4729328e+00
  1.3153154e+00
  4.1911808e-01
 -1.5701193e+00
 -2.9246780e-01
 -5.6697226e-01
 -5.2958834e-01
 -1.9866996e-01
  9.4245464e-02
 -5.9489906e-01
 -1.3924192e+00
 -6.5432471e-01
 -1.0168347e+00
 -8.4930432e-01
 -2.9888004e-01
 -6.3138908e-01
 -6.4490402e-01
  1.0413588e+00
 -6.3250309e-01
  5.3411150e-01
  1.0024407e-02
 -1.6747807e-01
  6.7787766e-01
 -4.9401488e-02
 -3.4353754e-01
 -9.3868250e-01
  1.3797752e+00
  6.5822050e-02
 -5.3026956e-01
  4.1690099e-01
  8.2048047e-01
  9.8256476e-02
 -7.4409831e-01
 -1.2520386e+00
 -7.9662114e-01
 -9.1186523e-01
 -1.1615237e+00
  1.1118613e-01
 -8.5322696e-01
 -3.4241518e-01
  1.7582965e+00
  7.9536736e-01
 -2.2318599e-01
 -2.8978139e-01
  2.8896379e-01
 -1.5699862e+00
 -9.6909755e-01
 -1.6049871e-01
  8.3148533e-01
 -1.4086304e+00
 -3.9744723e-01
  4.7656757e-01
  7.1451825e-01
  2.1363807e+00
 -2.0632364e-01
 -6.4338523e-01
  3.6112878e-01
  2.2355917e+00
  6.1179173e-01
 -9.5733082e-01
 -1.7337222e+00
  4.6672350e-01
  3.7925678e-01
  3.5385439e-01
 -2.0179820e-01
 -1.8603042e-01
  7.2169316e-01
  6.6767800e-01
  1.5633398e+00
 -1.3506430e+00
  5.1077020e-01
  4.2945644e-01
  4.0841204e-01
 -1.1391857e+00
  8.6649847e-01
 -1.7512679e-02
 -4.7602859e-01
 -1.4616607e+00
  9.9676996e-01
 -2.7446309e-01
 -3.6454752e-01
 -6.7991185e-01
 -2.8398588e-01
 -1.6073486e+00
  1.0180761e+00
 -5.5708230e-04
 -5.4039801e-03
  1.8157557e-02
 -3.1780254e-02
  7.1289700e-01
 -2.3777320e-03
  6.6234118e-01
 -2.6148535e-02
  7.0180036e-02
  1.2842216e-01
 -5.3862672e-02
  1.0189998e-02
 -4.2961150e-02
 -1.3768995e-01
 -1.3077144e-01
 -1.0271665e-02
 -4.9696392e-03
  3.6425374e-02
  1.3807070e-02
 -3.8051642e-02
 -4.4247240e-02
  1.1832738e-02
  2.6749317e-02
 -8.0978191e-03
 -4.7388785e-02
  4.1559599e-02
  1.6843766e-02
  6.3249459e-03
 -8.6318133e-03
  6.1003726e-02
  1.2871735e-02
  3.5758458e-02
  5.8366563e-02
  1.7729285e-03
 -8.3479270e-02
  1.5978720e-03
 -7.3975460e-03
  8.0515288e-02
  3.8890880e-02
 -2.8933613e-02
 -8.0916216e-04
  2.0620819e-02
 -2.7349105e-03
  9.7206403e-03
 -6.8909019e-02
  6.6043444e-02
  3.4432359e-02
  5.5826191e-02
  3.7000425e-02
  5.6530312e-02
  1.7630141e-02
 -4.7319476e-02
  8.5413083e-02
 -5.5278152e-02
  4.8363292e-01
  8.2618052e-01
 -1.5012369e-02
 -2.9194212e-02
  1.6960777e-02
  1.5661837e-01
  4.6160616e-02
  1.4105052e-02
  1.4672666e-02
 -4.9378682e-02
  8.1677885e-05
 -4.0615132e-01
  5.8818981e-03
  4.7866339e-03
 -1.4359838e-01
 -4.1530216e-03
 -4.0018771e-02
 -6.5231331e-02
  3.1123985e-02
 -1.4443221e-02
  5.2995693e-02
  1.5967708e-02
 -3.6989022e-02
 -1.7462480e-03
 -3.6515012e-02
  6.5520503e-02
  7.5467512e-02
 -4.1113339e-02
  3.2602951e-02
  9.3350589e-01
 -2.0140374e-02
  1.8962782e-02
 -2.1961598e-02
 -1.2477132e-02
 -5.1814462e-03
 -4.5750130e-04
  9.9572549e-03
 -1.7153434e-01
  5.8697108e-02
  1.0652087e-01
  4.7609512e-02
 -2.5428303e-02
  1.1044005e-04
 -5.8596853e-02
  7.3511027e-02
  3.3756159e-02
 -4.0110581e-02
  3.2835975e-02
 -1.0779820e-01
  3.1117788e-02
  5.3232767e-02
 -2.0085998e-02
  7.7354059e-02
 -1.0204988e-03
  4.0342186e-02
  1.0520111e-02
  8.0191605e-03
  2.1241777e-02
  2.3487268e-02
 -1.5400177e-01
 -3.0740170e-02
 -9.1935582e-02
  5.2371666e-02
  7.6704519e-03
 -1.7589487e-02
 -2.2982138e-01
 -5.9704199e-03
  1.3295613e-01
  1.7359324e-02
 -4.0057674e-02
 -1.8033251e-02
  1.2106094e-02
  4.6716634e-02
 -1.6260022e-02
  4.4306364e-02
 -2.9897766e-02
  1.0121368e-02
  4.1112745e-01
 -2.5332283e-02
 -1.0245982e-01
  1.0409320e-03
 -2.3840891e-02
  1.9200660e-02
  4.7708813e-02
 -4.9641266e-02
 -4.0535729e-02
 -4.9336068e-02
 -6.0820218e-02
  5.6996476e-02
 -2.3662457e-02
 -8.1297094e-03
 -5.6040585e-03
  4.0377028e-02
 -9.6043004e-03
  5.3015193e-03
  6.4944513e-02
 -1.8337549e-01
  8.7812357e-02
  5.5977488e-01
 -7.5170686e-03
 -4.1629244e-02
  5.6614727e-03
  1.0703290e-01
 -3.6592786e-03
 -3.3560835e-02
 -5.8399260e-02
 -1.1246278e-01
  3.8140526e-05
  6.7632739e-04
 -6.2880732e-02
 -4.8723463e-02
  5.0722390e-02
 -4.4415738e-02
  1.5827155e-01
 -2.4689052e-02
  2.2092809e-03
 -3.3483605e-03
 -1.6697655e-02
 -1.2262614e-02
 -1.0256972e-02
  2.2105852e-03
 -8.6652497e-03
 -8.2120284e-02
  5.0284374e-03
 -2.0898229e-03
  1.3082266e-01
  2.3418354e-02
  1.0590573e-02
  6.5805867e-02
 -5.0059985e-02
  4.1423392e-02
 -1.2547094e-01
 -8.3397247e-02
  5.1131178e-02
  1.0243642e-02
  5.8000896e-02
 -9.8836422e-02
  5.0513381e-03
  8.9735584e-03
  5.0992980e-03
 -1.2058946e-02
 -3.0268367e-02
  6.9910169e-01
 -1.8190382e-03
  1.0716197e-01
  1.8321435e-01
 -2.4030579e-02
  3.1522915e-02
  2.8024843e-02
 -5.3359892e-02
  1.1470436e-01
  2.5899038e-02
  3.8493406e-02
 -4.5023441e-02
  1.4042974e-02
  3.8850433e-03
 -1.9482753e-01
  3.1606015e-02
  6.0587350e-02
 -6.0657807e-02
  1.4402001e-03
 -1.7329785e-01
 -1.9286146e-02
 -1.2978800e-01
  1.8627496e-01
  2.0100633e-02
 -3.0998197e-01
  4.5555305e-01
  3.9044391e-02
 -1.0731065e-01
 -4.0291879e-01
  1.5972137e-02
 -1.2599643e-02
 -4.8280195e-03
 -6.8318106e-02
  3.9437357e-02
 -6.5383010e-02
  4.3761123e-02
  1.0457691e-01
  3.1068519e-02
 -2.3802038e-02
 -1.0922883e-02
 -2.1145247e-02
  4.2682275e-02
  9.1122158e-02
 -1.0155286e-02
  3.0751960e-02
 -1.8561344e-01
  3.7389245e-02
 -2.1937722e-02
 -2.2610649e-02
 -1.2837441e-01
 -2.8893233e-03
 -2.2122558e-02
  2.9562833e-03
 -2.8661981e-03
  3.5124112e-02
 -1.0643473e-02
 -1.5892662e-02
  8.3373683e-03
 -6.1198315e-03
 -1.3370528e+00
  1.3465445e-01
  1.7982645e-02
  2.7593117e-02
  7.8408346e-02
 -1.5052756e+00
  1.8717008e-02
 -6.2501177e-02
 -1.2045857e-02
 -3.1675298e-02
 -1.4031397e-01
 -8.8053511e-04
 -2.6529992e-02
 -2.2424288e-02
  4.8998844e-02
  2.2983902e+00
 -2.7230628e+00
  3.0339283e-01
  4.0096104e-02
 -9.5218402e-01
  3.4174374e-01
 -4.9942192e-02
 -1.6806446e-02
  1.2717857e+00
  2.8413153e-01
 -8.5959688e-02
 -9.4954841e-02
  1.2902243e-01
  4.0304127e-01
  6.9445729e-02
 -3.4439418e-02
 -2.8050309e-01
  1.0344840e-01
  2.2923378e-03
 -3.3474639e-02
  1.5701238e-02
 -2.9086500e-01
  1.7763816e-03
 -5.3728610e-02
 -7.9580618e-04
 -5.5682743e-01
 -6.9441134e-01
 -9.8761529e-02
 -7.5805718e-01
 -5.8697078e-02
  2.0697668e-01
 -3.5946127e-02
  1.1260422e-01
  5.3450936e-01
  2.6172635e-01
 -9.2298597e-02
 -2.8721910e-02
 -1.0684585e-01
 -4.3389377e-01
  4.5527175e-01
 -3.3331614e-03
 -4.8170224e-02
 -3.2870269e-01
  5.6578130e-01
  8.3027446e-01
  1.1837594e-02
  1.1306182e-02
 -3.6488546e-03
 -1.1803094e-01
 -4.1110516e-03
 -7.4298799e-01
 -2.6080590e-02
  2.3996592e-02
  1.1328873e-02
  4.9556144e-02
  1.1395173e+00
  1.3607490e+00
  2.4518339e-02
  2.1437654e-01
  1.0708069e-02
  1.1302821e-02
 -1.0838866e-01
 -1.9471152e-02
  3.4677979e-02
 -1.8333487e-02
 -1.6534812e-03
  1.9289850e-01
 -6.1793894e-02
  1.5576366e-02
 -1.9683884e-02
 -8.2361311e-02
 -9.4820922e-03
 -1.7308252e-01
  5.1650968e-03
 -1.7072994e-02
 -7.1707137e-02
  3.6119122e-02
 -7.1053378e-02
 -2.0108984e-03
 -2.4326760e-03
  3.6498182e-02
 -6.9547151e-03
 -1.1208116e-01
 -2.4257215e-02
  1.2811295e-02
  1.4557892e-02
 -3.5400817e-03
  3.8636208e-03
 -5.4803602e-03
 -7.6316772e-03
  6.5300907e-03
 -2.6057571e-02
  5.5221707e-02
 -1.5700969e-03
 -7.6430831e-03
  1.0527808e-01
 -5.2350298e-02
  5.1157985e-02
 -1.4648633e-01
 -3.0506246e-02
  3.6767027e-03
  2.7458565e-02
 -1.2791300e-02
 -2.6866520e-02
  3.1952076e-02
  7.1426205e-02
  5.0086569e-02
  9.0913244e-02
 -3.2509181e-01
 -5.9044820e-01
  1.8465461e-01
 -4.1546449e-01
  7.7205938e-01
 -2.6128581e-01
 -1.5273979e-03
  3.7098402e-01
 -7.8922737e-01
  1.2046038e-01
  2.6125459e-02
 -2.2988595e-01
  1.4209716e-01
 -9.2132337e-02
  4.8430134e-02
 -4.8238505e-02
 -1.6639410e-02
  3.4187138e-01
  8.8970354e-03
  1.8357765e-02
 -2.3758566e-02
 -2.3420046e-01
  8.0731019e-02
 -6.3528068e-02
  1.7043808e-02
 -2.8440602e-02
 -1.4873554e-01
 -3.9197665e-01
 -3.0303881e-02
  2.3900387e-01
 -4.2191464e-02
 -1.2796285e+00
  2.3854749e-02
 -3.6525033e-02
  3.3281365e-01
  2.0895896e-02
  3.5039529e-01
  2.7582403e-03
  1.3335248e-02
  3.5168174e-01
  1.8665424e-01
 -1.6085763e-01
  2.5757173e-01
  7.5474165e-02
 -3.2525882e-01
  6.2792338e-02
  9.9319093e-02
  1.6676638e-02
 -4.2678249e-01
 -3.1718962e-02
 -1.2066086e-02
 -4.9153306e-03
  5.8447551e-03
 -5.1757772e-02
 -5.3368203e-02
 -1.7419386e+00
  2.2651298e-02
  2.8623950e+00
 -2.1845368e-01
  2.0973654e-02
  6.8469262e-03
 -4.1553263e-02
  7.4009567e-02
  1.7658891e-01
  3.4480014e-01
 -4.1175809e-02
  6.0908526e-02
 -3.2371666e-02
  8.9966543e-02
  4.7222424e-02
  3.0034000e-01
  3.4647763e-02
  7.9338200e-02
 -6.0810220e-01
  9.3362574e-03
  6.7573180e-03
 -4.3503646e-02
 -2.6875956e-02
  2.4935717e-03
 -6.3248403e-02
  1.5035808e-01
  2.0255582e-02
 -3.4303553e-02
 -8.0902234e-02
  1.6690807e-02
 -1.3753554e-01
  1.0556206e-02
  9.4127297e-02
 -8.7101338e-03
 -1.9635202e-02
  1.8747129e-03
 -5.0527111e-02
  3.3861671e-02
  4.3643528e-01
  3.7399519e-02
  9.7069063e-04
 -3.7750066e-03
  2.0002016e-01
  1.6412679e-02
 -4.5528218e-02
 -3.5391286e-02
  6.9908961e-03
  1.2794524e-02
 -6.0208854e-03
  6.0781635e-02
  1.0525630e-01
 -1.1131746e-01
 -2.3672070e-02
  4.0321112e-02
 -6.3335560e-03
  1.1607434e-02
  2.0631395e-02
 -2.1116970e-02
 -2.4448643e-02
  3.1846538e-01
  5.4480445e-02
  3.1151848e-02
  1.8241908e-02
  1.1188909e-03
  1.4870296e-01
  5.1138895e-03
  9.3441876e-03
  1.2600448e-02
  1.3401236e-02
  6.9308644e-03
  9.8281959e-03
  8.9014582e-03
  2.4700722e-02
 -4.0053293e-02
 -4.2889517e-02
 -6.5881722e-02
 -1.3325348e-01
 -4.8370931e-02
 -2.7962731e-02
 -9.9479981e-02
 -1.2664521e-02
  3.6571544e-02
  2.6111215e-02
 -1.7163942e-03
 -2.4830196e-02
 -1.3851181e-02
  4.0593848e-01
 -3.4645602e-02
 -3.7555732e-02
  9.6416369e-02
 -9.6416108e-02
 -1.8606760e-01
 -4.3355312e-02
 -1.6239230e-02
  4.2444535e-02
 -9.5155928e-03
 -9.1718109e-03
 -1.9001372e-02
  2.2547437e-02
  1.0505752e-02
 -5.4086545e-03
  1.4069219e-02
 -3.7194442e-02
  1.6750334e-01
  6.3149724e-03
 -1.7653685e-02
 -1.7709719e-02
  1.9861251e+00
 -2.3477981e-02
 -4.0500265e-02
 -8.4936574e-02
 -1.9899309e+00
  6.5062113e-02
 -4.0786475e-01
  1.1968764e-01
 -1.3337859e+00
  2.5361657e-01
 -1.3307701e-01
  8.8443592e-02
  1.1796330e-04
  2.9428771e-02
  1.9957066e-02
 -3.8763217e-03
 -8.1332617e-02
  1.5129994e-01
 -5.1149257e-02
 -5.1115131e-01
  4.5215826e-02
 -4.7998530e-01
  5.9241295e-01
 -3.5931656e-01
 -1.2714387e-01
 -4.2973739e-01
 -1.2714793e-01
 -4.9869293e-01
 -4.6321812e-01
 -7.4892557e-01
  4.6189077e-02
 -1.9517021e-01
  1.0918578e-01
 -9.4877690e-02
 -2.0751752e-01
 -4.4849887e-02
 -2.9096004e-01
 -6.3391376e-01
 -2.2613621e-01
 -1.5227315e-01
 -6.6980245e-03
 -8.2649988e-01
  2.7402906e-02
 -3.2597950e-01
 -6.7859329e-02
 -9.1525219e-02
  2.2118725e-02
 -1.0578092e-02
 -1.7343764e-01
  2.2723598e-02
 -1.0796582e-01
  4.1410830e-02
 -1.2996183e-01
 -3.5688624e-01
 -1.2287564e+00
 -9.6378720e-01
  4.8480430e-01
  7.4698907e-01
  3.3522233e-02
 -1.9593850e-02
  1.7235474e-01
 -3.1501740e-02
  3.8375208e-01
 -2.7270120e-02
  7.5760633e-02
 -3.2286551e-02
  3.2533562e-01
 -1.8772183e-01
  2.2162951e-03
 -6.7544378e-02
 -1.0198046e+00
  3.9297421e-02
  5.9668412e-03
  2.0586997e-03
 -1.7163755e-02
  4.7445502e-03
  4.9327575e-03
 -5.2947089e-02
  8.2666658e-02
  1.1153156e-01
  5.8373291e-02
  5.6055434e-02
 -2.0393865e-01
 -7.4520245e-02
  6.3888825e-02
  1.2881857e-01
 -3.7458513e-02
 -3.8406223e-02
 -3.1411637e-02
 -5.1534947e-02
 -5.2194234e-02
  9.1237150e-02
 -7.3179446e-02
  1.8352775e-01
  1.0040088e-01
  1.5146618e-01
  3.3680242e-03
  2.6297271e-01
  6.6270284e-02
 -5.8597885e-02
  5.5915870e-02
  8.6948983e-03
 -6.0278095e-02
  1.9130362e-02
  1.5148795e-01
  9.4942349e-01
 -8.7623090e-02
 -1.7394528e-02
 -2.1213641e-02
 -1.5770259e+00
 -1.1167910e-01
 -1.3937368e-02
  5.7535756e-02
 -3.3656754e-02
 -2.4758899e-01
  2.6088464e-01
 -1.4257793e-01
 -2.2072488e-02
 -1.7506789e-01
 -7.2044492e-02
  6.6634804e-02
  8.2266361e-02
  6.1425503e-02
  1.2304501e-01
 -1.0508779e+00
  3.7571587e-02
 -1.2602596e-02
 -1.4086975e-01
 -6.4406574e-02
 -3.4357231e-02
  5.5598114e-02
  6.6188201e-02
  9.1117419e-02
  3.7887488e-02
  3.6370896e-02
  4.0353555e-02
  4.6358913e-02
 -5.5219803e-04
  3.3753075e-02
 -1.8291564e-03
  5.0879031e-02
  1.4349747e-02
 -2.8349293e-02
  2.2314630e-02
 -1.1547740e-01
  8.3721593e-02
  1.0043760e-01
 -9.3028434e-02
 -1.0047268e-02
  1.3021128e-01
 -1.2632930e-01
 -1.2975121e-03
 -8.9107662e-02
  7.1850918e-02
 -9.6354954e-02
 -5.9059728e-02
  2.3675991e-02
 -6.3341684e-03
 -7.4775830e-02
  4.3633874e-03
 -2.9834023e-02
 -1.9126205e-02
 -1.6532465e+00
 -8.9185578e-01
  9.6758938e-01
 -6.0580490e-04
  8.1174105e-01
 -1.3565412e-01
 -2.1709360e-01
 -4.3516847e-01
 -1.1120197e+00
  1.7675396e-02
  3.5957617e-01
 -4.5362222e-01
 -5.9377933e-01
 -1.1301551e-01
 -4.2944342e-02
 -7.2594213e-01
  3.3465075e-01
  3.5605440e-01
  1.0166908e-01
  3.8294073e-02
  5.2314079e-01
  1.7810965e-02
  7.6884216e-01
 -1.6886362e-01
 -1.0941695e-01
 -6.3237637e-02
 -7.4061923e-02
 -1.3021527e-01
 -7.3269546e-01
 -2.8756987e-03
  1.9479790e-01
  9.7137921e-02
 -1.7221408e-01
  5.2463017e-02
  1.1224627e-01
 -3.5012168e-01
 -1.0686556e-01
  3.2707106e-02
  1.7930771e-01
 -4.1150417e-02
  4.2206416e-01
 -1.9127421e-02
  6.7729419e-01
  4.9402878e-01
  7.5031951e-02
  1.4467699e-02
 -2.9627208e-03
 -2.5651139e-01
  6.3565397e-03
 -5.6265902e-02
  1.2635401e-01
  2.3784300e-03
 -2.7324688e-01
 -3.9652430e-02
 -2.2506008e-01
  2.6788950e-02
  1.4164716e-02
  1.3761808e-02
 -1.3621674e-01
  7.4676923e-02
  6.8430893e-02
 -4.4097748e-02
 -8.9358008e-03
  6.8786964e-03
  4.7816327e-03
  5.9349649e-03
  1.6282180e-01
  1.1733158e-02
  1.8805228e-02
  4.1484557e-02
  7.1357101e-02
  1.0969723e-02
 -2.7002454e-01
 -5.1988982e-02
  1.8866545e-01
  2.2047635e-02
  7.8897975e-02
  3.6397591e-02
  1.2588184e-01
  5.7773679e-03
 -9.9656381e-02
  6.6976354e-02
  3.6570352e-02
  3.4978415e-03
 -2.5513504e-02
 -4.1409917e-02
  1.3358821e-02
  5.8951257e-03
 -1.8019218e-02
 -3.5730083e-02
 -1.7952020e-01
 -2.1050038e-02
  8.1705238e-04
  1.0282244e-01
 -3.2991555e-02
  3.6596436e-02
 -6.2585399e-02
  1.8629237e+00
  4.6951171e-02
 -3.7468817e-02
  1.2491907e-02
 -6.7766070e-02
  1.9006791e-02
 -2.5579687e-02
 -2.7528633e-03
 -2.4829008e-02
 -2.9626656e-02
 -3.2016814e-02
  4.1663855e-01
  1.1116207e-01
 -6.7358695e-02
  9.9190697e-03
  8.2534119e-02
 -1.3452101e-02
 -2.9358944e-01
  1.0807990e+00
  1.3445327e-01
  9.3629144e-02
 -8.3786853e-02
 -8.4857024e-02
  1.3356879e-01
 -4.6504851e-02
  6.1748330e-02
  5.6920676e-03
  1.6816333e-02
  3.6390379e-02
 -5.0403617e-02
 -1.0240387e-02
 -3.6108270e-02
 -3.8467154e-02
  2.0527293e-03
  4.6593726e-02
  1.8671593e-02
 -1.2459797e-02
  6.5743744e-02
  1.1632154e-02
  4.1191145e-03
  7.7562765e-03
 -1.6558965e-01
  2.9860009e-02
 -5.0099354e-02
 -8.4070556e-02
  6.0539078e-02
  2.6208172e-02
  2.1797836e-01
 -1.3013129e-02
 -4.3708503e-02
 -6.7390776e-01
  2.0892652e-02
 -4.9159784e-02
  7.7063084e-02
 -1.7079521e-02
 -5.6899000e-02
  3.8351111e-02
 -4.5384116e-02
  5.4075349e-02
  1.1175548e-01
  7.9571009e-02
  7.3680751e-02
  7.7377282e-02
 -1.1323884e-02
 -1.6209424e-02
 -4.4581693e-02
 -5.1801167e-02
 -5.0678756e-02
 -1.0755702e-01
  3.1265360e-01
 -3.3512454e-02
  2.8183483e-02
  2.1232560e-02
  2.7331751e-02
  5.4630999e-02
 -3.1125011e-02
  3.4710556e-02
  1.1128715e-01
 -1.1352417e-02
 -1.1323161e-01
 -1.6084909e-01
 -8.0047414e-02
 -5.4523391e-03
 -1.5602327e-02
  4.1317616e-02
 -3.6289852e-02
 -3.4726981e-02
  2.9754205e-02
  2.6449826e-02
 -1.3944258e-02
 -1.9474423e-03
 -7.0824444e-02
 -3.6390185e-02
  1.4147248e-02
  5.4657623e-02
  2.8961170e-02
 -2.0092228e-02
  3.5376363e-03
 -1.6217686e-02
  1.1724848e-02
  2.0092694e-02
  1.0338189e-02
 -7.8013346e-02
  4.1609214e-04
 -1.7838284e-02
 -1.4376735e-03
 -2.1127326e-02
  7.8535443e-03
 -4.0631637e-02
  1.4756646e-02
  4.2414308e-02
  4.2186767e-02
 -3.3799845e-01
 -6.1941665e-02
 -5.7520233e-02
 -5.5426368e-03
 -1.7845521e-02
 -8.3033764e-01
  7.2755534e-03
  1.6110539e-03
 -2.4608929e-01
 -3.7113154e-01
  6.4774251e-01
 -4.4594300e-01
  8.3250272e-01
 -7.3472589e-01
 -8.7580127e-01
 -7.5127137e-01
 -1.4146503e+00
  5.3225219e-01
  2.2840863e-02
  5.9264697e-02
 -2.3033936e+00
  4.8529256e-02
 -3.0667186e-01
  3.4088376e-01
 -1.0360754e+00
  4.5365039e-01
 -3.4010082e-01
  7.6301688e-01
 -1.4141564e-01
 -1.1283026e+00
 -6.0522610e-01
 -1.3135037e-02
  1.1373628e-01
 -4.4296370e-03
  3.6971402e-01
  1.2282629e+00
  1.6946077e-02
 -1.6201477e+00
  1.3614761e+00
 -8.7106979e-01
  6.2905714e-02
 -9.2400575e-01
  2.7035001e-01
  6.1139870e-01
 -1.2606692e+00
 -2.2748242e-01
  5.6170255e-01
 -1.0995729e+00
 -6.9853789e-01
  6.2701054e-02
  6.1802876e-01
  1.3327509e-01
 -1.0704506e-01
 -5.8992345e-02
  7.0693694e-02
  6.6917010e-02
 -3.4610286e-02
 -2.1667410e-02
  2.1072354e-02
 -1.1393232e+00
 -3.9437884e-01
 -5.7974041e-02
  9.1219324e-01
  2.9005684e-02
  1.2967187e-01
  2.6598188e-01
 -2.2406697e-01
  1.0262736e-02
 -1.2474952e-02
 -7.1714664e-01
  3.3610947e-02
  7.3249497e-02
  3.6351584e-02
 -2.2675458e-02
 -1.0295871e-01
  5.0694856e-04
  1.9500107e-01
  2.1178722e-01
  3.1583399e-01
  1.0305392e-01
  3.7870158e-02
 -5.9172124e-02
 -3.1048374e-02
 -6.5416489e-03
  1.8665398e-02
 -1.8424833e-02
 -1.3869194e-02
  5.2284962e-01
  1.7758982e-02
 -9.9553624e-03
  1.3458270e-03
 -3.7555245e-03
  2.3542124e-01
 -2.4912622e-02
 -5.8122450e-03
 -9.1053396e-03
  1.5680056e-02
 -6.5556772e-02
 -3.7395921e-02
 -2.3242902e-02
 -1.7382373e-01
  3.2552034e-03
 -3.0582133e-03
  1.7203929e-01
  4.3577057e-01
 -7.8845136e-02
  7.2239481e-02
 -1.5800241e-02
 -4.7427785e-02
  2.4020821e-01
  1.1505428e-02
 -1.7811129e-02
  5.0843485e-02
  7.5942151e-02
 -3.2434732e-02
 -3.8795465e-01
 -3.9451343e-01
  8.4956340e-02
  5.6324106e-02
 -1.3279508e-01
  1.4170182e-01
  1.4010917e-01
 -2.8428046e-02
 -2.5873851e-02
  1.1976202e+00
 -1.9642109e-02
 -4.7721207e-02
 -7.7179968e-02
  2.7377510e-01
 -7.2638192e-03
  7.9517588e-03
  3.2226279e-01
 -1.3501236e-02
  2.8985366e-02
 -3.4463885e-01
  9.8167602e-03
  3.7691281e-03
 -2.5294269e-02
 -8.3259232e-03
 -8.2921367e-03
 -1.3791401e-02
  1.2569195e-04
 -8.1833340e-02
  2.7451064e-02
 -6.1900318e-02
  1.3031748e-02
 -3.0176638e-04
  9.5549766e-03
 -1.8421028e-02
 -4.4663064e-02
  9.8904734e-03
 -9.6180439e-02
 -2.0335380e-02
 -3.6566682e-02
  9.6129678e-02
  3.8700603e-02
  3.1399596e-02
  1.6247470e-02
  1.3012306e-01
  5.2568242e-02
 -1.9349236e-02
 -1.2613974e-03
 -2.4215408e-02
  8.1820274e-03
 -3.8845789e-02
  1.3978023e-04
  1.8506620e-02
 -2.9576590e-02
 -1.3664603e-02
  3.6636594e-01
  9.0635413e-01
 -5.2272980e-03
  2.0786265e-02
  3.8947496e-01
  1.7107457e-02
  1.1518259e-02
  3.8965121e-01
  3.8568118e-01
 -2.5960936e-03
 -2.1030898e-03
 -6.2355243e-02
  1.0883533e-02
 -2.5249302e-02
  6.8635292e-02
  2.4263510e-02
 -5.0856483e-01
  6.5491237e-02
  1.7714143e-01
 -1.1911578e-02
 -4.5728832e-03
 -1.4169244e-02
  1.6266957e-01
 -3.8844015e-02
 -1.0971893e-02
 -1.1125379e-02
  3.2011268e-01
 -2.2018890e-01
 -1.1877028e-01
  4.8074652e-02
  2.3175608e-02
 -7.6074838e-03
  1.6732063e-02
  6.9501721e-03
  1.3584197e-02
 -2.1352094e-02
 -2.1794852e-02
 -2.5488079e-01
 -2.8108839e-02
 -1.6468521e-02
  1.7306050e-02
  6.5585810e-01
 -1.0822632e-02
 -1.2898329e-01
 -8.2089975e-02
  4.4742720e-03
 -2.5421070e-02
 -2.5573235e-02
 -4.2469509e-02
 -1.0833275e-01
 -6.3335255e-02
  1.9186931e-03
  5.7067741e-02
  2.2336980e-02
  3.2782501e-03
 -7.0807561e-02
 -2.6544318e-02
  1.0382992e-02
  7.5679950e-02
 -9.4840050e-02
  8.1272319e-02
  1.3813539e-01
  6.8245210e-02
 -2.3417002e-02
 -2.0680971e-02
 -7.7394736e-03
  4.3160081e-02
  2.3547480e-02
 -5.3631406e-02
 -5.9100956e-02
  7.9922631e-02
 -2.4298780e-02
  1.2720367e-01
  2.0104021e-02
 -1.2301720e-02
 -7.0380881e-02
 -4.8417166e-02
  4.5650750e-02
 -5.2829697e-03
 -5.5406061e-03
  1.3867442e-01
  3.0923998e-03
  7.1388803e-02
  5.8169443e-02
  1.0710101e-02
 -1.0079942e-02
  3.1646643e-02
  1.1940831e-02
  2.4773385e-02
  3.5401613e-02
  2.0202514e-02
  1.3225577e-02
 -3.2185517e-02
  9.9392392e-02
  6.8451907e-03
 -4.1824686e-03
 -3.8876873e-02
  3.9647906e-03
  6.0595800e-03
  3.1829737e-02
  1.4082873e-02
  4.1280761e-03
  2.2230651e-02
  3.9671451e-02
  5.5323258e-02
  2.7459247e-02
 -2.3483157e-02
  4.4502545e-02
 -1.2306855e-02
 -1.2700583e-01
  2.9263925e-02
 -7.1682399e-03
  4.8222482e-01
 -2.4204178e-01
 -2.8270235e-02
 -2.7411920e-01
 -1.0707591e+00
 -3.6543882e-01
 -4.7474145e-03
 -9.2687588e-03
 -2.2543244e-02
 -1.5910028e-01
 -4.9556896e-02
 -6.4496137e-02
  9.0456821e-02
 -3.0007115e-02
 -4.3611974e-01
 -3.9717939e-02
  2.6930038e-02
 -1.1202566e-02
 -8.8662272e-03
 -2.6685033e-02
 -1.5418103e-03
 -2.5103665e-03
 -3.5805561e-02
  2.1457657e-01
 -3.5096124e-01
 -1.8367569e-03
  9.8273300e-02
  1.7830253e-02
  9.9219382e-03
 -1.7258032e-01
 -2.8491540e-02
  3.7641026e-02
  5.8979630e-02
  1.7746702e-02
 -4.2863965e-02
  3.3275407e-02
  9.7199474e-03
  6.3346513e-02
 -1.9513521e-02
 -1.1273731e-01
  2.2152929e-02
  1.5260049e+00
  3.6760695e-02
  4.1037565e-03
 -1.1619575e-02
  5.2265041e-05
  2.5121586e-02
 -1.0192338e-02
 -2.7526917e-02
 -4.9563397e-02
 -2.5046566e-01
  5.6179788e-02
  5.1776562e-02
  1.2047430e-02
 -2.1704052e-02
 -1.1767454e-02
  3.2373544e-02
 -5.2888811e-01
 -7.8395925e-02
  1.2571865e-02
  1.5843312e-01
  4.1227791e-02
 -6.8039796e-03
  8.1839502e-02
  4.1790381e-02
 -6.4120471e-02
  1.9429848e-02
  8.4962538e-03
  5.7502560e-02
  3.5726549e-03
 -2.9817736e-02
 -1.0500783e-02
  4.1384943e-02
 -2.6765377e-03
  1.1425134e-02
  5.6423187e-02
 -8.1759572e-02
  1.7472122e-02
  1.6703304e-02
  1.3518239e-02
  1.4450024e-01
 -6.8030409e-03
 -5.8689840e-02
  6.8573259e-02
 -3.9873134e-02
  1.4125642e-01
  1.0472961e-02
 -3.7977539e-02
  3.8219284e-02
  1.4889030e-01
 -5.4750744e-02
 -2.9042296e-02
  1.2627065e-01
 -5.9499145e-03
 -4.2554665e-02
  3.4953333e-02
  1.2219792e-01
  1.1786319e-01
 -7.1415760e-02
 -2.0214360e-02
  5.3713072e-02
 -8.0507666e-02
 -3.4045053e-03
  4.4052694e-03
 -2.8924979e-02
  6.7651826e-03
  1.3973500e-01
 -2.4492882e-02
 -5.1743141e-03
 -1.5695221e-03
  7.9825660e-03
  1.7957680e-02
 -1.3734700e-01
 -3.6192514e-02
 -4.6075317e-03
  2.0671363e-01
  4.3955717e-02
 -2.9759222e-01
  4.4240650e-02
 -9.0868725e-03
 -7.4412040e-02
  1.5975124e-03
  3.1446908e-02
  1.1255030e-01
  6.4542722e-03
  6.2033489e-02
  4.2222027e-02
 -6.0010202e-02
  5.6555927e-02
 -1.4209385e-02
 -1.4975673e-02
 -2.7797585e-02
 -5.1072091e-02
 -3.6108322e-02
  1.4247909e-01
 -2.8140256e-02
 -9.9794557e-03
 -3.7401761e-03
 -5.3743497e-03
 -1.0060650e+00
  2.9355859e-02
 -2.4375912e-02
 -6.8010114e-02
  2.0236284e-03
 -2.1287624e-02
  1.0349799e-02
  5.6197029e-02
 -3.2241099e-02
 -3.6815036e-02
  5.3518072e-02
  1.2492415e-02
 -8.2238257e-02
  8.6593116e-03
 -3.5894163e-02
 -2.0803325e-02
 -1.5621825e-01
 -2.9292060e-02
  3.9299480e-03
 -3.8432533e-01
 -1.0714318e+00
 -2.3939383e+00
 -7.3691589e-01
  7.5601572e-01
  4.1209319e-01
  4.4959299e-02
 -2.9086867e-01
  3.9888060e-01
  2.1455562e-01
 -1.2954824e-03
  1.8198255e+00
  8.1281775e-01
 -3.4731436e-01
  8.1584945e-02
 -7.2040892e-01
  4.4949663e-01
  4.1754615e-01
 -2.3595271e-01
 -3.9144808e-01
 -2.8562608e-01
  2.1778138e-02
 -3.8633057e-01
  5.1980126e-01
 -2.7707317e-01
  2.0579518e-01
  4.0015518e-03
 -5.0510985e-01
 -1.2475177e+00
  2.3159905e-01
 -6.1708105e-01
 -2.4537607e-01
  3.1191915e-01
 -7.2416045e-02
  2.8456107e-01
  4.4762117e-01
 -3.9628506e-01
  1.0819089e+00
 -3.0191738e-02
  6.7546569e-02
 -1.1472248e-01
  1.5862115e-01
 -4.4139203e-01
  5.4874688e-01
 -1.5004556e-01
  4.8074540e-02
  8.0749243e-02
 -1.5200335e-02
 -1.2617960e-02
 -3.6952281e-01
 -7.3650248e-02
 -4.7401492e-02
 -2.0981779e-02
 -5.0836005e-03
 -6.7722030e-02
 -7.2087586e-02
  6.2205913e-03
  6.4626476e-03
  1.2897924e-02
  5.5558745e-02
  2.5996141e-02
  1.5308381e-03
 -3.3656481e-01
 -2.6488950e-02
  5.2423853e-02
  1.4137343e-02
 -2.4238488e-02
  7.2990501e-01
 -1.0811528e-01
 -3.6839940e-02
  1.7396972e-02
 -1.6145406e-02
  1.0040397e-02
 -6.9735169e-02
 -1.9763067e-02
  1.4190788e-02
  2.0709857e-02
 -3.1231320e-03
 -5.1255971e-02
  2.6329163e-02
  2.9505216e-02
  1.0827029e-01
  2.9611620e-01
 -1.2568314e-02
  1.6613454e-01
  7.5030319e-02
  5.6903441e-03
  1.2588478e-02
 -5.2180886e-03
 -5.1780412e-04
  7.8819236e-03
 -1.4169046e-01
  8.9994678e-03
  8.6909544e-04
  8.2223015e-03
 -2.2253855e-03
  1.3467652e-02
 -1.2026314e-02
  2.2819366e-02
  6.6904195e-02
  2.0771574e-02
  5.9552941e-02
 -5.5928014e-02
  3.2621197e-02
 -5.7547800e-02
 -9.9068217e-02
 -4.7831342e-02
  5.0270837e-02
  8.0393665e-02
 -3.4715628e-04
  1.0040916e-02
  4.6413325e-02
  3.3584523e-01
 -1.8689690e-02
 -3.2282054e-02
  3.8859840e-02
  5.1906401e-01
  2.6975325e-01
 -4.5009512e-02
 -1.8553387e-02
 -4.8973947e-04
  1.1488895e-02
 -1.8948058e-02
  2.3621586e-01
  2.6149439e-02
 -1.0271209e-01
  6.9393776e-02
  7.8415293e-03
  4.7217663e-02
  4.9495907e-03
  6.1113138e-02
  1.6595147e+00
 -2.5525305e-02
 -2.2958744e-02
  7.3269588e-01
  8.9091044e-03
  5.4446585e-02
  7.9420349e-03
 -8.4659688e-02
 -1.3694812e-01
  2.2051970e-02
  3.6701877e-02
  1.6952430e-01
  1.0730320e-04
  1.6382228e-01
 -5.1664622e-03
 -1.0964042e-03
 -2.5493229e-02
 -7.5233005e-02
  8.4729260e-03
  4.6926484e-02
 -3.4093503e-02
  2.7572004e-02
  2.8167881e-02
  6.5308318e-02
  7.0288256e-03
  6.7924485e-02
  8.4287720e-03
 -2.5107698e-03
  3.1481456e-02
  5.0336566e-02
  9.5767779e-03
 -5.9724969e-01
 -3.2111338e-01
 -1.4858630e+00
  1.5314405e+00
 -1.1561291e+00
 -1.0056337e+00
  4.4506872e-01
 -7.4858946e-01
 -2.5880010e+00
 -3.9820734e-01
 -1.9755621e-01
  8.2154267e-02
 -4.5298450e-02
  3.0262229e-01
 -5.5867302e-01
 -7.3132254e-02
  3.5242230e-01
  1.5613366e+00
 -5.4183936e-01
 -8.4979087e-02
 -5.6620663e-01
  4.4439369e-01
 -1.9302985e-01
  1.7621402e-01
 -6.4793688e-01
 -9.8099314e-02
 -3.3940744e-01
 -1.8851635e-05
 -1.5165082e+00
  5.8993910e-02
  1.2503376e+00
  3.1311572e-01
  1.6681424e-01
  2.1780919e-01
  8.5237928e-02
  3.7383184e-01
 -9.1131765e-01
  3.5158804e-01
  4.9336255e-02
  2.3312557e-01
  1.2547496e-02
 -2.6728281e-01
 -9.9141181e-01
  4.6210315e-02
 -1.1815947e-01
  2.1078160e-02
  1.8025570e-01
 -7.2035431e-03
  1.5751390e-01
  7.2733514e-02
 -9.1680571e-02
  2.0014033e-01
 -9.3356945e-04
  5.2609585e-02
  1.4655504e-01
  5.7847726e-01
  9.5578423e-03
  1.5551590e-02
  4.3998829e-01
 -1.3979228e+00
 -1.3975921e+00
 -9.0794012e-02
 -8.7127648e-02
 -1.7183182e+00
  5.9782189e-01
  5.1145887e-01
  6.6010392e-01
  1.7047627e+00
  5.6653462e-02
 -7.0733100e-02
 -3.0123955e-01
  1.6989836e-01
  7.0725150e-02
 -1.4969954e-01
  9.6898727e-02
 -8.5044600e-02
  3.7690610e-01
 -2.7265843e-02
  1.3931298e-01
 -5.0421383e-02
  1.3515683e-02
  4.8208557e-02
 -9.6261268e-03
  1.1320825e+00
 -2.2604626e-01
  4.6014797e-02
 -8.2552053e-02
 -1.3420532e-02
  6.1032301e-01
  7.5541037e-01
  8.2416318e-02
  1.0499761e+00
  4.4805631e-01
 -7.3368773e-02
  1.6559703e-02
 -5.1906377e-02
  4.1996074e-01
  5.4675367e-02
 -9.5654503e-03
  2.0072402e-02
 -3.0206889e-02
 -8.9081787e-03
  9.8275915e-03
 -1.2999590e-02
  6.0996186e-02
 -3.5827570e-02
  6.0155075e-02
  1.2324625e-01
  1.5859802e-01
 -3.0024548e-03
 -2.8921425e-01
 -2.6534873e-01
 -8.8829464e-01
  2.7253652e-01
  3.7290867e-02
 -3.2761005e-01
 -1.0053235e+00
 -1.3860691e-01
  1.0367275e-01
 -6.7964502e-02
 -4.2661759e-03
 -2.3718014e-02
 -1.0030854e-01
  4.7419917e-02
 -7.9217061e-02
  5.5682775e-02
  6.9371513e-03
  1.2325752e-02
  3.4979463e-02
 -3.5238128e-02
  4.6554189e-02
 -1.8372816e-01
 -4.9802639e-02
 -8.3177105e-02
 -5.1495373e-02
 -2.3052961e-01
 -8.4409207e-02
  1.2374167e-02
 -1.1635468e-02
 -9.0249470e-03
  4.8430189e-02
 -3.2527816e-02
 -1.2290033e-02
 -1.0319664e-01
 -3.1487504e-01
 -7.4838981e-02
 -2.7809978e-02
 -9.8120449e-03
  5.2512470e-03
  1.6561383e-02
  3.4355111e-02
 -5.6855571e-03
 -1.1030376e-01
 -2.1149348e-02
 -7.0716828e-02
  1.0374924e-02
  1.4146270e-01
 -1.8557586e-02
 -6.2165600e-03
  2.3519656e-02
  6.9117598e-02
 -7.8814805e-02
 -1.0740395e-02
 -1.9273667e-02
  9.7567274e-04
 -7.6429725e-02
 -6.4594567e-02
 -9.6519627e-02
  1.0706956e-02
  1.7738142e+00
  2.0032129e-01
 -8.0555500e-03
  6.1867326e-03
  4.4882469e-02
 -4.0163893e-02
  9.0707485e-03
 -1.4586013e-02
  1.5012217e-01
  5.4565018e-01
 -9.0192717e-01
 -2.6824657e-02
  1.5266203e-02
 -2.5491558e-02
  7.5342767e-03
  9.8508984e-02
  2.9548446e-02
 -3.1208744e-02
  2.1790826e-01
 -9.4535630e-03
  4.7905955e-02
 -1.3600618e-02
 -1.0227831e-02
 -2.7066130e-02
  1.8712040e-02
 -1.1101761e-01
 -3.0768728e-02
  3.2649804e-02
 -1.8713225e-02
  6.2488922e-04
  1.2055448e-02
  1.2762250e-03
  3.8054347e-02
 -2.6125910e-02
  2.3563748e-02
  2.2555573e-03
  3.9001178e-02
 -5.0837398e-02
 -2.3622377e-02
 -9.8591290e-02
  2.7838787e-02
  2.3347570e-02
 -1.9758599e-02
  2.1522112e-01
 -6.5410048e-02
 -2.8954478e-02
 -3.7623391e-02
  8.4105837e-01
 -4.3177973e-03
  4.1463535e-02
  5.9984718e-03
 -1.7821090e-01
  2.1360759e-01
 -7.3829964e-02
  1.9071512e-02
  1.2127124e+00
  1.1579382e-01
  1.8989349e-02
  1.2121054e-02
 -7.1042940e-02
  3.7502985e-02
 -1.0356944e-01
 -2.1072011e-02
  2.2178540e-01
  1.9206258e-02
  4.5806762e-02
 -1.4555943e-01
 -5.9512462e-02
 -3.5756728e-01
  1.3319321e-01
 -4.3120343e-02
 -1.2321620e-01
  3.8766954e-02
  3.5934281e-03
  3.6750875e-02
 -3.2260798e-02
  2.0627165e+00
  6.5821566e-02
 -1.3142215e-01
  1.1315481e-02
 -5.3910825e-02
 -4.0531121e-02
 -4.1937880e-02
 -3.8752306e-02
 -1.6071273e-01
  7.2109178e-02
  7.2863579e-02
  3.8363516e-02
  1.0641640e-01
 -2.6817161e-03
  3.8724631e-02
  4.5892119e-01
 -2.5972713e-02
 -2.6073994e-02
  8.2322218e-02
  1.2868768e-02
  3.8520858e-02
 -2.2920910e-03
  4.8781279e-02
 -1.6072566e-02
  7.2777085e-03
  6.9088525e-01
  6.0892707e-01
  1.4608963e+00
 -3.8431519e-01
 -1.0728748e+00
 -2.4172655e-01
 -9.7619563e-02
  7.4632078e-02
  8.1036007e-01
  1.9356754e-02
  3.5260558e-01
 -2.1971841e-01
  1.0453013e+00
 -2.0078598e-01
 -1.7332161e-02
 -3.1847832e-01
  8.0228823e-01
 -1.3362606e-01
 -1.1624865e-02
  4.6580973e-01
  2.5879426e-02
  1.3402817e-01
 -1.2282715e-01
  3.0801516e-02
 -9.0805357e-03
 -9.7685205e-03
 -1.0452743e-02
  1.0027701e-02
  3.4415749e-01
 -1.3457082e-02
  1.1184995e+00
  3.7643086e-02
  1.3586174e-01
  8.9714587e-02
  5.7102925e-01
  7.9792505e-03
 -1.4062319e-02
 -5.4568317e-02
 -8.6076841e-02
  3.1011021e-03
  1.9112453e-01
  4.2675741e-02
 -6.5828217e-03
 -1.6353323e-01
  1.6372716e-02
  2.0626321e-02
  4.4732045e-02
  2.2398150e-02
 -1.0284685e-01
  6.5197656e-03
  2.0509727e-02
  4.2881936e-02
 -5.4735426e-02
  7.1721487e-02
 -7.5293072e-02
 -1.2882932e-01
  6.7999445e-02
 -3.5202421e-02
 -1.8877172e-01
 -2.1632768e-03
  1.6065199e-02
 -6.2327659e-01
 -6.2008029e-01
 -8.9333038e-04
 -7.6146297e-02
  6.8678156e-02
 -7.0655428e-02
  5.8014531e-02
 -9.2301078e-02
  2.2014108e-04
 -9.3039013e-03
  6.3765585e-02
  7.7025467e-03
  2.6864174e-03
  2.5894207e-01
 -3.8482368e-02
  3.3775926e-02
 -8.7826699e-02
 -4.4128336e-02
  4.0205214e-02
 -3.0654462e-03
  4.3610685e-02
  4.5475434e-03
 -6.0190428e-02
 -8.9657875e-03
  8.9854859e-03
 -3.1505607e-02
  6.7916554e-03
 -5.1167951e-04
 -3.2177512e-02
 -6.2816985e-02
  9.2378236e-02
 -1.3353610e-02
  2.7235555e-02
  1.3745393e-01
 -1.2094099e-01
  3.8405493e-02
 -5.9487753e-02
  1.3031058e-01
 -5.9191361e-03
  7.7567752e-03
  5.5106800e-02
 -6.9170010e-01
 -5.3267661e-02
  4.3854233e-02
 -1.3755537e-02
 -9.3901314e-02
  3.9861295e-02
  7.9107597e-02
 -1.9922379e+00
  8.7713348e-03
 -1.8961951e-01
 -1.3244793e-01
  8.9507878e-01
 -2.5159791e-02
 -1.3340641e+00
  9.3874371e-01
 -8.8635045e-01
 -1.2213148e+00
 -1.0882381e-01
  6.3700914e-01
 -1.1086612e+00
 -1.1927754e-01
  3.3393452e-01
 -4.7770584e-01
  3.9283425e-02
  1.9265382e-02
 -4.3571234e-01
  3.6008734e-02
  9.7088926e-02
  2.0420624e-02
  2.7929803e-02
  1.2890854e-02
 -1.9117132e-01
  2.9097769e-01
 -6.1617102e-02
 -3.4584096e-01
 -3.5636535e-01
  1.6339365e+00
 -2.3125763e-01
  6.6261999e-02
 -2.2532855e-01
 -2.1598179e-02
  1.7385887e-01
  1.5572764e-01
 -2.8796870e-01
  2.0819646e-01
  3.0846956e-01
 -2.9896261e-02
  9.3517691e-02
 -2.0605445e-01
 -5.4043755e-02
  7.7310777e-01
  2.4545737e-02
  3.4556943e-01
 -9.5243324e-03
  1.1281012e-02
 -1.2332434e-03
  2.8816817e-02
 -1.0921245e-01
 -4.4578627e-02
  2.1950656e-01
  1.0545660e+00
  2.5990948e-02
  2.0187836e-02
  1.7013205e-02
 -1.1735563e-01
  9.2316130e-03
  3.1976879e-03
  3.3335809e-02
  6.7459881e-02
  4.4930309e-02
 -3.4826599e-02
  4.1864958e-01
  1.0090733e-02
 -3.4001753e-02
  4.6350777e-02
  1.9044062e-02
 -2.6144549e-01
 -1.1167966e+00
 -1.2714042e-01
 -4.1731127e-02
  7.8932988e-03
  1.5904035e-02
 -6.4860664e-02
  7.2482862e-02
 -5.0718013e-02
 -2.1716805e-02
  1.4992568e-02
  9.7607478e-02
 -4.0285066e-02
  5.0179105e-02
  5.0402928e-02
  1.2665689e-02
  6.7002490e-02
  2.5086371e-02
 -1.6552329e-02
  1.9023864e-01
  5.7663590e-02
 -1.0707102e-01
  3.6017716e-02
 -2.6995859e-01
  2.8057945e-01
  3.1505521e-02
 -1.0798806e-02
 -1.2713812e-01
  1.8959062e-02
  1.7882792e-02
 -1.6051654e-02
  2.5118858e-02
  8.7598667e-02
 -3.2116906e-03
  8.6094119e-02
  3.6175951e-02
 -1.4490215e-01
 -1.1982720e-02
  4.9831563e-01
 -8.5435458e-02
 -1.6127329e+00
  6.7884717e-03
  7.1145588e-01
 -3.3822784e-01
 -5.4421657e-01
  1.1725179e+00
 -1.5129013e+00
  6.4412910e-01
 -7.3519819e-03
 -1.4093961e-01
  5.0911784e-01
 -4.4213615e-02
  1.5719788e-01
 -1.4890735e-01
 -1.3576283e-01
  5.9344274e-01
 -2.1898972e-03
  5.8411732e-02
 -1.4479135e-01
  7.7712369e-01
  3.0238968e-01
  4.2455965e-01
  4.4583067e-02
  4.7935709e-01
  2.3542719e-01
  3.9575872e-01
  8.8824916e-01
  1.5780057e-01
  8.0316639e-01
  1.0296708e-01
  5.8712685e-01
  4.3289420e-01
  3.6739078e-01
 -8.7154461e-03
  2.2230743e-01
  4.8676243e-01
 -5.5772968e-02
  1.3100238e-01
  7.6690674e-01
  5.2770907e-01
 -1.2342177e-02
  1.4745902e-01
  4.6843708e-01
  9.5516428e-02
  1.2669039e-01
  4.7038522e-02
 -5.3791995e-03
  2.1688226e-01
 -5.7163611e-02
 -3.8115028e-02
  3.8451791e-02
 -7.5765386e-02
  1.1944380e-02
 -1.1978188e+00
  8.5163698e-02
 -3.8095471e-02
  3.6840755e-02
  9.5981382e-02
 -2.4960623e-03
  6.6507809e-02
  4.4677636e-01
  3.4541619e-01
 -9.2400208e-02
 -3.2525070e-02
  1.7227326e-01
  2.9916957e-01
 -1.8288499e-02
 -2.2352298e-01
  7.3141376e-03
  7.6684996e-02
 -2.7852884e-02
 -4.8735294e-02
 -2.2940009e-03
  2.7119413e-01
  7.2334662e-02
  3.6489718e-02
 -7.6463461e-02
 -1.6204953e-01
 -6.2776141e-02
 -2.1820171e-01
  7.0545539e-02
 -6.6189985e-03
 -6.0430663e-03
 -2.0995228e-02
 -1.3591692e-01
  8.9438200e-02
 -1.3985239e-01
  7.3553659e-02
  4.9364887e-02
 -9.3484461e-01
  7.1841623e-03
 -3.5241101e-02
  6.3683335e-03
 -6.8586871e-02
 -4.1919593e-02
  1.1307900e-01
 -1.6212175e+00
 -6.9593258e-02
 -6.6683353e-03
  5.6486700e-02
  1.0284600e-01
  1.7976618e+00
  2.0418722e-02
 -1.0227416e-01
  8.5900471e-02
  1.4576106e-01
  1.4995188e-01
  9.5556118e-03
  1.6155015e-01
  7.1951210e-01
 -1.3696049e+00
 -1.1078643e+00
  1.4581723e-02
 -3.8314462e-02
 -1.5103289e+00
  1.7252527e-01
  4.1540964e-03
 -9.0380080e-02
 -7.0209599e-01
  5.9227470e-02
 -6.3398038e-03
  7.2069280e-03
  3.0934450e-01
 -4.4093290e-01
  2.0326287e-01
 -2.3255434e-02
  5.7910800e-02
 -6.1966073e-02
 -2.4176119e-01
 -5.6107583e-05
 -5.0041348e-02
  9.1176771e-02
 -8.9521825e-01
  3.2097197e-01
  3.3859730e-01
 -4.9795527e-02
  3.7503961e-01
  3.7108123e-02
 -1.5373778e-01
 -7.2106622e-02
  3.2763798e-02
  6.6671818e-02
  7.8650641e-01
  5.5812836e-01
 -4.5040539e-03
  1.4054269e-01
 -6.6748393e-01
  1.1567559e-01
  3.6367141e-02
  2.3683598e-02
 -2.0467738e-02
 -2.8905380e-03
 -1.2483716e-02
 -8.0656804e-02
 -1.2090762e-02
  6.9875605e-02
  5.8736846e-02
 -6.1707970e-02
  4.3061852e-02
 -3.3737630e-02
  3.6582518e-02
  3.2212853e-02
  2.1967160e-02
  3.7608132e-02
 -5.8394276e-02
 -3.6131084e-02
  1.7633609e-02
  4.3579828e-02
  3.0775599e-02
 -8.5478649e-02
  6.6281497e-03
  4.0311225e-02
 -1.4496933e-03
 -2.3411505e+00
 -7.6706365e-02
  9.6045233e-02
 -5.8265071e-02
 -3.3923541e-03
 -1.7382250e-03
  5.8742497e-02
  6.0257960e-02
  1.4751478e-01
  1.0804879e-02
  3.4799345e-02
 -1.1928685e-02
  1.2399867e-02
  2.7281111e-02
  2.3779936e-02
 -6.4571582e-02
 -8.9132348e-03
  3.4887567e-03
  2.9066170e-02
  3.7627999e-02
 -1.9411477e-01
 -7.7524520e-02
  1.3229344e-02
 -1.3849286e-02
  1.2574124e-01
 -2.9138785e-02
  7.8856423e-02
 -1.2060387e-01
  4.5623045e-02
 -4.3112971e-02
 -2.1517919e-02
 -1.9307846e-02
 -5.9074990e-04
  4.1477542e-02
  4.4357762e-02
  7.3608741e-02
 -1.9587616e-03
  6.2215872e-02
 -3.7559051e-02
 -8.1951544e-02
 -4.9648929e-01
  3.7190359e-02
 -6.7693517e-02
 -1.0607515e-02
 -1.7933144e-03
 -1.8243963e-01
 -4.3820091e-02
 -7.8590140e-03
  6.5947734e-02
  2.4489888e-03
 -1.4898140e-02
  4.8089046e-02
  4.5019776e-02
  1.2348360e-02
  5.5015862e-02
 -3.4849394e-02
  6.2628686e-03
 -1.8990619e-02
 -6.1426915e-02
 -3.4477200e-02
  4.9676862e-02
  4.0977828e-02
  3.0646482e-02
 -8.0866303e-04
 -1.2079008e+00
 -3.0007266e-02
 -5.0506876e-03
 -2.2896014e-02
  5.8055900e-02
  1.4307257e-02
 -2.7957009e-02
  4.2832601e-03
 -2.2384884e-02
 -4.2065717e-02
 -2.4227232e-02
  3.6011685e-02
  2.6522147e-02
  2.5824944e-02
 -1.6268505e-02
  1.3757715e-01
 -9.1823965e-02
 -8.4205717e-02
 -1.4242503e-03
  1.7448712e-02
 -7.8206599e-02
  5.2696832e-02
 -1.9074814e-02
 -1.1434257e-02
 -3.0385030e-03
  4.1086722e-02
 -3.8110603e-02
  6.6433124e-02
  5.1528852e-02
 -1.2721967e-02
  3.1983078e-02
  2.3253348e-02
  2.8907916e-01
 -3.0006641e-03
 -2.0670949e-02
  1.3023381e-01
  2.7926594e-02
  3.5106033e-02
  6.2002413e-02
  2.0523044e-01
  4.4736292e-02
 -1.4839297e-02
 -7.4075670e-03
  2.6594371e-02
 -1.9026471e-02
 -3.6618050e-02
  2.9506091e-02
  2.5744705e-02
  6.0587621e-04
  1.7614525e-02
  7.7173881e-02
 -1.0892311e-02
  8.3847739e-02
 -1.6108719e+00
 -6.5011568e-02
  1.8397272e-02
  3.0333959e-03
  1.2226813e-02
  3.3303067e-02
 -4.4659581e-02
  6.3056424e-03
  1.4559806e-03
 -8.3916327e-03
 -1.1463168e-02
 -1.2981374e-02
  4.6861563e-02
  4.9107324e-02
 -9.8157644e-02
  1.0618275e-02
  4.7944374e-02
 -1.3032629e-02
  7.6425099e-03
  1.2582083e-02
 -2.2177838e-02
  1.0223830e-01
  1.2573468e-02
  5.1192891e-02
  3.2565564e-02
  3.3389855e-02
 -1.1503278e-02
  4.9236141e-02
 -1.8751901e-02
  6.7075067e-03
 -1.2205290e-02
 -1.2281589e-02
  7.0695937e-01
